1937 41 3 
-0.40375591926960414
-0.5028704564212721
0.2975420778329603
0.5194396382739478
0.78934240851497
-0.8801326023832996
0.928483383804577
-0.04296423028367442
0.6206905298683911
-0.28372144638465335
0.7771044784343304
-0.5027082960836452
0.35416681437304165
0.08422592088515472
-0.545032474808777
-0.06465525002974785
0.2058140621211023
-0.94139361168236
0.7189335851245265
-0.8462215827300752
-0.9351521560785193
-0.9813796369179185
-0.710762762701838
-0.407208571574966
-0.20975390470521119
-0.7831446571134796
0.8408405429853122
0.9472954849403187
-0.25429786159551204
-0.7272263561329867
-0.49708908413726904
-0.4339499848917341
-0.09360857019123844
-0.301170154163662
0.8141197319369643
-0.39466533030103784
-0.046151660118080695
-0.7035080819108427
0.0783876279623907
-0.4218378855063838
-0.7711304086604049
0.32533712978767715
0.03439206592204416
0.7767270588478088
0.7940939851600565
0.6535368135016265
-0.8366479712976335
0.5021293689655534
-0.14563039092336338
-0.14222604461740507
0.6526423591264071
0.9310117018634637
-0.7259918497472023
0.532066648334658
-0.5176731178587555
0.3380204547605643
-0.43352490973741137
0.1431110374623717
-0.8067899378995728
0.12130946471658557
-0.8830315951837266
-0.6103206824061391
-0.21262754959683997
0.09501303070145438
0.9058245725967211
-0.4516053576290873
-0.7850902518453169
-0.33046298674902075
-0.4898239256634672
-0.4377940500072888
0.20543246437090326
-0.8498802959869175
-0.18582873214140808
-0.7571516264046869
0.5032742854909075
0.6308416313525188
-0.5281681015024241
-0.18295646744990182
-0.4358500245811784
-0.15029387436193545
-0.8009208163223915
0.4690788209941459
-0.1591359895168706
0.804917570868813
1.1297300686107086
0.4363657274374984
0.6752744081723232
0.006368266188085861
-0.7282827844451579
-0.9717904923870818
-0.18007546213988318
0.28231166422551734
-0.2559940694683387
0.9332135334816579
-0.12330781501416781
-0.8395262450358922
-0.2665275295086474
-0.11242613327643448
0.26169699979570227
0.820195762420348
0.2260905408572307
-0.8121885061106795
-0.3536133438265674
-0.6438959481847139
-0.14735349554457444
0.13963416895883127
-0.9083197741646445
0.5311499888821696
-0.24134993674150196
0.15567145208706976
0.5563522055566811
0.7534604477347788
-0.6198299483834185
-0.67332109778986
-0.5466264434040713
0.5755562644239545
-0.5884457284958512
-0.05229068282071185
0.3366883814019835
-0.05711434738850473
-0.34054184676177074
-0.6215087743266848
-0.2696445936772984
0.09980644728962353
-0.0014945287432923395
-0.5467794982091918
-0.49504443972905104
-0.07194313939719033
0.738394177332957
-0.07819968698293357
-0.7063434623901391
-0.14511515142762738
-0.14004054952039732
-0.18980282632849144
0.14395301437435642
0.3708416616500742
-0.02009423544868227
-0.3905555660696744
-0.36829930740912825
-0.09575746202263916
-0.4821877432827017
-0.6352742754352106
-0.06936532214455877
-0.5499932724633825
-0.01750807557926139
-0.4521794659004181
-0.29487441380937585
-0.5402839056711144
-0.12555409891988423
-0.6261600706818184
-0.6445428704347456
0.1471417028819645
-0.7709384879249569
-0.5251989490712691
0.9010038326906942
0.942657554272828
0.6609005792123949
0.4341303788463576
-0.7712690641622244
0.08790337134438882
-0.0813129592371862
-0.3735374869083552
-0.8640038177806129
0.9078452219035131
0.25687082089816576
0.02977099524273333
1.0829998689646982
-0.4807974988047362
-0.5495818809700669
-0.3577208114981946
0.8153749301842015
-0.17580842092718446
0.47741909212807593
-0.6358966683033628
0.13039316685229366
-0.37696086835927484
0.2998696157457958
0.6645001312122216
-0.10459470782474307
0.6705549964393892
-0.184887878299738
0.17798903672000116
-0.8765511929780573
-0.12790254182856337
0.6696881327237019
0.5020035789473317
0.5293439986334687
-0.8334254122010968
-0.41374154834228183
0.29332084551343823
-0.113805517682791
-0.07618281461740237
0.1620285945070683
0.9054365974920494
0.2965063793039567
-0.8362406311841308
0.011573565398603356
0.4612246829348127
0.48656732272403297
0.29362615019551663
-0.9926438221825576
0.3949082995506363
-0.4676999657551421
0.5376432761637526
-0.6335146339593938
0.4190700396194714
0.21877108868996875
0.21699910846702813
0.7385480792939936
0.42908809428191813
-0.6363136780788237
-0.0020409145028487717
0.37737825642238193
0.2054787021583836
-0.740305219708812
0.8408575901930727
0.13715790086163074
-0.5063113446572204
0.54812740226048
-0.6688321418685821
-0.8704594633233026
-0.3589363323747589
0.8694052747559525
-0.6268569679107271
-0.21805759901694477
-0.5894308772867148
-0.5372012460822666
0.5884916809565283
-0.8960121559118611
-0.2552455709110002
0.14796921087717088
0.472807565576393
-0.1615044958611051
0.7740409232265639
0.22440005863411036
-0.33045950468376356
0.2532702235764383
-0.33885352930947626
-0.2753658617967681
0.4345258258775832
0.33350502360130563
-0.945236029462822
-0.48049560190343826
0.07075822530287407
-0.34118663155807794
-0.1178013942891103
0.7448838316676105
0.4591586220758736
-0.5683022904344021
0.7686450169718346
-0.5692417996447819
0.29215388729180336
0.3790561048560834
0.12370416971543524
0.5161107965937759
0.41895422367839047
-0.8416216755217785
-0.8951296871982158
-0.466611228216943
0.43534809412165304
-0.9197775996595038
0.48848105466479574
-0.5247437606548242
0.36340116016364515
0.6118182768684125
0.9351956801496236
-0.8599667920152669
0.6761274911137164
-0.33374458126693074
0.7421819961981979
-0.5374049971655571
0.8447854275332057
0.020522852167137173
-0.7184734034228569
-0.4654022322257541
-0.7460326718743705
-0.4918571390899184
0.26232139456545744
0.09372702284103647
0.6347369842884134
0.24241666430035838
0.005390192614962669
-0.49989175927172813
-0.297177033339186
-0.9963446821259627
-0.23439883438714676
-0.4142425757815693
-0.43216713646478705
0.8738853434315861
0.09063947801706748
-0.8198048658722429
0.6326824228497375
-0.007718157108219346
-0.6752807691482492
-0.14487402016438
0.7416202836939196
0.7416180990340557
-0.4625502614812403
-0.12478108467275696
0.9818245515523871
0.3512696755402513
-0.433885671360419
0.9626380364077071
-0.3180756988858464
-0.47073897373311596
-0.18773141598155266
0.7663948717421206
0.9946427430748271
-0.18114802610120695
0.27883174580102227
-0.04602098599192267
0.0840384802520187
0.5089352886239111
-0.07572521986317235
0.30872740678507077
-0.2399509815678434
-0.7535318722556866
0.020210114635451117
-0.6233509648041029
-0.002853354684355714
-0.7757730374291681
-0.7671194662089171
0.524455748419431
0.6492258500789562
0.15323327988962318
0.05352710480364979
0.2269451514632351
-0.3263600960157007
0.1529205413953884
0.2963930273831029
-0.26497040264518273
0.8217092033015467
0.9237149430051442
0.04388916009543038
-0.6536173816406643
-0.3635089687155523
0.6201836444044395
-0.947118407410159
-0.824774792179417
-0.667933119131654
-0.8692171259964866
0.1482515606615963
0.753028155933996
0.8854295569191357
0.5976331599239293
-0.8018318866483418
0.3605616789064349
-0.20024279927075841
-0.9481663365720153
0.23212066935277056
-0.018429755618061785
0.7628924903145755
-0.3836157129673597
-0.6636896107214398
-0.8037281421580109
0.4933867859536291
0.26126061423189373
-0.4068471687312315
-0.05882069216262916
0.9774731287122171
0.8783546570803473
0.19199289352320037
-0.2925852461771655
-0.5615157923481437
0.9430828092449844
0.12611145713454333
-0.6977692098562143
0.9580771532837704
-0.08747218474494778
0.157358610768969
-0.3435664342597386
0.3784042976914359
-0.40935620997039773
0.09803993283975632
0.08646174561529923
-0.013607422228540689
-0.5371274435646025
1.0430991142236805
0.5790610697487952
-0.31783831543010377
-0.7543375310033653
0.6271671900737056
-0.22633289983745547
-0.4809837847851073
-0.5500890828228725
0.6016835812033325
-0.08836483350777326
-0.969546845612358
-0.7283917040089636
0.8351090747276196
-0.1765244489353329
0.28536292886972386
-0.3431332839902925
-0.8771938267969589
-0.854508756230023
0.8117048467368716
0.7267930091547785
0.1683784001824269
-0.7846253399036339
0.7975225908658098
0.8274396600946137
-0.9041817992670925
-0.5562744874856641
-0.22591339782896788
-0.1455513526583168
-0.3591395627143021
-0.4800607723324047
0.5060231487065195
0.42421135396159493
0.5861910393111354
0.014837375977281245
-0.3445659207887169
0.12275051624790138
-0.963765395977083
-0.5411481389616031
-0.39653009977564296
-0.5397393787463964
-0.9290421518360694
0.06450713880097612
-0.5398631497123924
0.6313817610860145
0.8774146075699975
0.347544967494036
-0.08590983348827509
-0.2734799629253212
0.9248767784005384
-0.4847797714918327
0.21267387661151288
-0.05819866044176699
-0.9137532705148702
0.14065607788152923
-0.39996498336830166
-0.08609248230745344
0.08936378177235658
0.05004567321324348
-0.2723698159966092
0.3384951115679954
-0.8036197174660247
-0.609998140988959
-0.7883998678048842
0.8862458269605951
0.3059302636425911
0.6949041700648257
0.12849882315052802
-0.08895438207862318
0.12090549156452712
-0.3352440911706086
0.7950991088940282
0.68266311362437
0.33726657513307007
0.07688827734278281
-0.5053512756799095
0.7337456016629843
-0.08696300764861711
-0.29192185566060047
0.6997646633494174
0.371209449848742
0.7273108292938986
0.32785285524168883
0.6833573382032186
0.017902590962454255
0.0159143288147504
-0.15429101530578723
0.9135529952205997
-0.26083285961532704
0.5294638904842294
0.5945168666095115
1.1383747923099798
-0.21770419295931337
0.9690485130067333
0.2652448379449655
-0.924280276903882
0.8131168913210237
-0.9886802752305147
-0.72874950197756
-0.24338021628853312
0.1833691392307947
-0.09626823163995411
0.8784159691342077
-0.6697597338994664
0.7267987866430641
-0.0716482119553141
0.8163476217794188
-0.4310685589951262
0.5638914400002593
0.030966058054465995
0.30790419463947427
-0.003746450878024276
-0.5944032947433772
0.364472047889762
0.9173018710293819
0.7252252523867975
-1.0282584580076777
0.3140734889344751
-1.0716787018587384
-0.7753355275922001
-0.18026523791388524
-0.2535578626896055
-0.3248270785183342
-0.22065233810880017
1.2701981020613162
0.36474289469130544
-0.8861846779578857
-0.39495684908747775
-0.5961517878767356
-0.38903905461237176
-0.3745367908486348
0.6225510636883773
0.7760789189365254
-0.4812019239697184
0.44136529835902727
-0.41331731988024023
-0.8680504236079027
-0.1894706079001412
0.7987690741833475
-0.7408645147163628
0.8371463650168753
0.09104288049341396
-0.4259130358887199
0.19416747453228353
0.275288523432712
-0.6716934068508313
0.07598657891560917
-0.18558068118401916
-0.42683514044051013
-0.7787059523593752
-0.17078584742025874
-0.8677741169644327
-0.5765582205978188
0.76749932309273
0.2720252273651531
0.5567778349156597
-0.5682545204822369
-0.12589805383796424
-0.7240034721383174
-1.4973051606744396
-0.22255408103984
-0.21887978587830767
-0.5111292885927666
0.3935494580145959
0.9813678352733923
-0.17713400570675503
-0.788832384066668
-0.3175909910403209
0.2906996482964446
-0.0761105193423798
-0.4169847791217854
1.190734963049138
0.016998076561107217
0.1857610714283245
-0.7294780291048858
-0.46544946501100337
-0.4640247072104597
-0.16427507653628703
0.18713016810008704
-0.2773203810590729
-0.630851181346762
0.316308782441377
0.447303731979766
0.9359072291371102
0.6467251598705647
-0.3044289009809658
-0.893995320805065
0.4648241076790028
-0.6377394904081846
-0.25764681305452336
-0.8876515880636642
0.07130268065265594
-0.40486014013959826
-0.8372177169431267
-0.005583096670886721
-0.5727354951198459
0.11342181214814634
0.2243709200665165
0.7594543782289856
0.4025438005770537
-0.4801248086217603
0.6147565512699543
-0.35843705531538195
-0.9481265580831403
0.63007046832243
-0.03299192274977385
0.8959199758224998
0.7140548677194801
0.4971115870321123
0.18396313214199891
0.3690302126881108
-0.5630882787488314
0.8741921443881007
0.7421064989991601
-0.2122311705562856
0.19526323171916987
-0.2658054448275128
0.15064831486171087
0.4010885731652897
0.7052744339985294
-0.6597414103858874
-0.1993716779820242
-0.282672706351917
-0.0510861495416718
-0.6214678606412678
0.5034958551374636
0.9451707160926471
0.5966581951625776
0.4426281220667623
0.41582394223150415
-0.807373777185721
-0.9037990091226071
0.7418440352195159
0.4629351304999618
-0.319163635938576
0.8870952253996747
-0.13431632107136784
-0.3408080886184778
0.6851487133657002
-0.7398703327936329
0.7556464634295261
0.12088720004458145
-0.5878194029659488
0.8999869832077104
-0.4395962226301996
-0.9658581769243846
0.1624866479415444
0.9564449639620761
-0.2605629693487222
-0.535235722675893
-0.7550922398323193
0.38577891786240776
0.25832521894828964
1.2027464992319024
0.63250535985072
0.6530792028491574
-0.7416900017095103
0.5352627451110787
-0.02769818355290727
0.002420186817550149
-0.09375245665290823
0.19938123597222937
0.47822346741166494
-0.2995261705188411
-0.2538657195635542
0.7682193997614126
-0.25208496327560426
-0.2550145572088801
0.6348453423493435
0.7329057139039377
-0.41056650452931465
0.6149847011015358
0.16296058742152536
-0.8741528336185161
-0.4251519055268668
-0.0010020152113761067
-0.19407753609045247
-0.8802109502008585
-0.7738912824109605
-0.8052088615227155
-0.12780806616193074
0.4099983742740631
-0.6758901291561453
-0.5042991035204613
0.15556045152651016
0.12886930550100045
0.8042686775927405
-0.6043737973183466
-0.36956407632285043
-0.734242685271967
-0.10703398176785732
-0.1471478468735152
0.4770617312826324
0.23987580731716732
0.6838715730153635
0.817627964842895
0.6646855479295638
0.17435270964606014
-0.8848250292696784
-0.5865885790854573
0.19597204562763645
-0.8814141113706452
-0.33839509020504754
0.5705488171425949
-0.6692771284254573
0.08654320948540291
0.4758974666130993
0.4862659115752031
-0.14163212479647383
-0.18434800366984602
0.3207326338220132
-0.8226580559727827
0.8383845085057712
-0.20223180918064657
0.7294111647491635
0.7025369860575843
0.4601334310973447
-0.8157962714815797
-0.8516819445856885
-0.39958389756088875
-0.585929543425862
0.39573811123551134
-0.5614365354057014
0.30131941849712085
-0.818044809248713
0.022723150615445463
-0.7092482365862817
0.01249301555213268
0.5664455454182303
-0.3975883427693193
0.3103505328283382
-0.6833754547476772
0.04571458577839657
0.6381960551314951
0.9266260566966018
0.5468667979912472
0.281218434412137
0.19148092840798514
-0.7192919804135759
-0.8972002646199851
0.3984637721170283
-0.6624197554716715
0.7983390805774769
-0.5345686953961561
1.0550352127414813
-0.8541035536282834
-0.7552316398682828
-0.11553724743590706
0.8001952436897455
0.9045667507996513
0.9647449835770731
-0.3832905378794934
-0.05389471437375738
0.8309618685395664
-0.7563593885341928
-0.22921392928587378
0.7232974283385509
-0.5871186702522921
0.8441718344229514
0.26148174889035647
0.5964634636177063
0.624735848596387
0.8070564894217503
-0.7448812890093272
-0.5943081414647005
-0.25904425526431923
-0.15482947685344098
0.3204679907639389
0.8435583654447575
0.3781776365476658
0.8622406103684158
-0.8717635492354822
-0.008660336759160229
0.3982124667291106
-0.4813552480465017
0.8886738048367006
0.14003762469132922
0.7508078341605832
-0.8017184870461019
0.9358797683673143
0.2839187806545616
-0.9807486883657138
0.530856973620463
0.5153831353931262
-0.09997974571260866
-0.5422475267784291
0.3382362609830101
0.7075522197716901
0.34497539572147407
-0.1569756972117498
-0.8321603904608575
-0.23558393736466499
0.13405874891022032
0.8857551188596843
-0.7754335918297186
-1.2122659405081688
0.7993674669138517
0.1212879610741428
-0.1870336610620752
0.6819559849284497
0.05450287901550568
0.8660548794686591
-0.014776572979012137
0.36453051644541157
-0.897696909824798
0.1612747892440792
0.9527206895063592
-0.07230897501629317
-0.8571378664433968
0.04189719853492882
0.8570336520570329
1.0018866184691133
0.26142557688810575
-0.634723276442257
0.1206310629319715
0.7712438367952797
-0.659782471009158
-0.4019786930668323
-0.7171932693199908
0.39050266916076
0.397810795268512
0.5967254068191142
-0.7262318983825582
-0.02065226535653712
-0.5749456148878308
0.22379145767154682
0.1403087102840747
0.024489525551902203
-0.6243654286190099
-0.08569477610606527
0.4951991146810113
0.013527778310244458
-0.6039811964546898
-0.1430800279895901
-0.5163668278304244
-0.9697490847960619
-0.6555103850434143
0.6906911653337997
0.13802987641070347
0.8946532652203851
0.15823838388036351
0.7286522479171337
-0.41883657336515717
-0.3341891265082644
-0.02900894076153681
-0.7314539372280453
-0.20323718985799136
0.07166932522372313
0.14363387515865267
0.37137197940654704
-0.7423951138545123
0.37865263777725455
-0.14429215490267946
-0.8133998533191839
0.2810115860047543
0.021460898862166445
0.18752219230844064
-0.6226765386644905
-0.09511536906258374
0.25656248480090155
-0.912068040504183
-0.552850378729873
0.878943550232604
0.5030902853626873
0.27283693406301973
-0.5948970500237024
-1.0215705212971773
0.4907508215004203
0.3838181548614218
0.48088180175231177
0.679411955018577
-0.0683421225732595
0.3518012775283354
-0.4673646035434524
-0.9895417352417505
-0.09346405158962483
-0.7369541162907308
0.1127409095867892
0.6767385539291142
-0.10075776816322153
-0.024275797218993343
0.15453774788166402
-0.960318441882638
0.28679157292796403
0.15109054949402267
0.3032855874360219
0.8565119302101937
0.27488064685540986
-0.9509072468647608
-0.1949371839595861
-1.0603178192778218
0.9106448878214963
0.6018046498348313
0.3332657736314932
0.4293072941038099
-0.0109154669343192
0.7839558253328045
-0.8299785113562537
0.9215030162814908
0.8911779048175215
0.6086013417346819
-0.7283103950331202
0.5261840468420961
-0.6989801663622989
-0.7505452813311723
0.4205364216500847
0.2611335916369461
-0.9439589783100778
-0.2940704260828848
0.1702927410273264
0.5091701985255156
-0.6670349410961272
0.43959907635373935
0.819562954260159
0.8698539410361324
0.485651396607886
-0.6667786255656433
-0.21834995631584347
-0.11247653510024315
0.5953923710045353
0.17745338244796316
0.45675484380227044
0.005629758294969858
-0.17555170968900397
-0.0553703070307236
0.20365565057271984
-0.9099550767035985
-0.457562849670926
-0.3695208766471307
-0.7228798537791925
0.7344164430722829
-0.5728765989956578
-0.04705402885572343
-0.6766148318526721
0.10047124363988989
0.4822519223126848
0.2571438505923441
-0.8176867252952972
-0.4202997142146337
-0.17079651954811137
-0.08425020573255877
0.268615270522247
-0.8916565937827189
-0.3730902250349625
0.5846796678956809
-0.31253854372030676
-0.8037226117514874
0.6670175551709394
0.7903964582933631
-0.18739226172937276
-0.6968781854249314
-0.850398663850751
0.5107714941527937
-0.41473612488153727
-0.5237192470247828
-0.4941091464489662
-0.08929840330097764
-0.15778025467278128
-0.30654536901509616
-0.7414382819516382
-0.8067650206301488
-0.6788452273427938
-0.2252759096226522
0.09763469966477253
0.9559413706778812
-0.09511480055203274
0.9335138361194002
-0.10947900804913062
-0.6657329964181676
0.6059702148227158
0.44514529464368235
-0.580234963197366
0.012109409536752718
-0.8132030493287964
0.22394053617749135
-0.17088375534664257
0.8978088973093592
-0.0439057607247633
0.411687703242691
-0.6399696404133106
0.6166513018999231
0.037752912600270215
0.42297062466543245
-0.7263731832393802
-0.7284300080557392
-0.8172304735856655
-0.8124276265526258
0.33564248375288785
-0.7584465321580657
0.19657461825808403
-0.16259072627645904
-0.5943113624641774
-0.34205603032342263
-0.961916994890958
-0.8285296559851605
0.6832540769038125
0.5887134626943956
-0.1569347686633618
-0.6654665490431875
-0.9929578588989284
-0.4678588747814313
-0.7358134687664807
0.2698618570497146
0.3450838636650682
0.24534713705245279
0.6321274702716337
0.7812668080462731
0.3831647247711629
0.4869531130856002
-0.38843956701384097
0.18007051864168264
-0.41015896530749496
0.08274496414537759
0.9260025963784441
0.811693551601054
-0.16862212002886612
-0.22626746396107558
0.6408227264227241
0.9040947416277285
0.42511078625983134
-0.030744819136227338
-0.15077010967684337
0.5350466521254095
-0.8804749162747351
-0.816090550028894
-0.004962322368555567
-0.2521310121204658
-1.0050383553417959
0.5619211180236107
-0.12668451897892827
-0.12024537795760984
-0.6300520555118854
-0.4100046584051319
-0.6845126269453575
-0.6938605261085662
0.8479943800992271
0.5600683352393537
0.8852041665444819
-0.6965926238035064
-0.7432510758808732
0.8437642143928438
-0.6808326772079384
0.2898116566387691
0.05101158631377678
0.541387014710966
0.04227178813713717
0.691204972203744
0.12221817060706126
-0.6128400823607665
0.7213849741778594
0.09358752985360852
0.8278598460985163
0.9181965293698205
-0.874828668101288
-0.29398376792247993
0.383762779746449
0.7779339693112212
-0.5752167944683332
-0.4568908878423085
0.12281842462089676
0.6619825937292528
-0.39474625444416994
-0.5557014982041575
0.14140088880317012
-0.08050594576684854
0.8569762827367373
0.9144010213080271
0.5943932794392103
0.2716739763418368
0.5103862800656175
0.42106112261879364
-0.3940250132210141
0.6628111937012533
0.6361728721425192
0.5387775931235481
0.5513014308756129
0.07421360580771029
0.29776902096928776
-0.5259257153138934
-0.8966803786915698
-0.10455805580874182
-0.7399811844523762
0.24934873421378786
-0.6107388099992583
0.43340523811707066
-0.22774184521870197
0.018608403177805145
-0.6313954980705039
-0.5615755357407999
-0.835102233090772
0.26541709466901015
0.09172214060745618
0.52496536061292
0.2715943173708321
-1.0206345812564381
0.19102587632026236
-0.135049664984514
-0.5156175396938643
0.01082573497615172
-0.16208271306300637
-0.08195877997612376
-0.49573186668897185
-0.3384278802513687
0.5004370522190293
0.1356438700044668
-0.6148454814368028
0.7291225211513747
-0.823716192353619
0.5566364035041838
-0.43269322129986065
0.3579658610022148
0.3739658165640092
-0.7887921758789231
-0.782160704777931
-0.9675114219851526
0.39099237559323136
-0.7445460529801949
-0.9358644002257757
-0.5036330412392981
0.7065753116072117
-0.7309380588828496
-0.7028880276763145
-0.6697079414053199
0.6491419132010057
0.2892374932358036
0.060580741035225316
0.31847915680865124
0.7991540178785276
0.053769989860542496
-0.2717951207575593
-0.08489855349397946
-0.943323758225129
0.4376670529663288
0.4906470571397454
0.6522080072701293
-0.7078269889312858
-0.12183078954862453
0.9687795539157339
0.3985784053078152
0.11020799542587655
-0.6063435622625349
0.08699077805753685
-0.286700464326843
-0.6310363151550992
-0.5674928647450111
-0.3425939045519398
0.9695873837248803
-0.3369561309747834
-0.774749537456955
-0.6465485579668678
-0.14118486743564926
0.6313638080115399
0.9924090863903154
-0.2088185332198507
0.5890062753778241
0.011873553721251607
-0.7504335272736977
0.5266356934978077
0.4471709418972225
-0.6074072559525169
0.4798366046902761
0.48139065107719464
-0.6041722380863985
0.08855897447591259
-1.4161005999236655
0.6840594030074592
-0.30506767713716076
0.21611682342301516
-0.10758422068400006
0.827902353007462
0.5882914773680786
-0.17469218153549781
0.1316782482788686
0.34504196272612925
-0.1812075494136083
0.4372648431008161
-0.21081761958976528
-0.2107795925942568
0.7982051989432745
-0.30482181224696947
0.6011852671285837
0.2106147435193302
0.13099783727448142
0.6154683842839928
0.6812924503685738
0.8287130670312758
-0.07727314013645394
0.5345493510961332
-0.29790321295954647
0.08914422869155131
0.18600495148894064
0.8143037679841124
0.7297910703758618
-0.10457566509074287
-0.16417291985125054
0.8592623919734645
-0.505916625546965
0.12055840862757192
0.5356947111304062
0.3156771256094667
0.4111201750627936
-0.247230035025243
0.34512711362834836
0.2192159086056987
-0.4474765742611988
-0.9849032785658812
0.058294301484469804
-0.48985613343314294
-0.4146656411945935
-0.5644111230303175
0.8218764074538185
0.7896819438979366
-0.7482947296238658
0.7312461192724482
-0.3817848754465599
0.7097092277422193
0.3411601006622599
0.9135764378253585
0.6358948511263827
-0.8367417306461584
0.284577546124384
0.11305013913498703
-0.13282239208826302
0.530212156187079
0.5833158402256964
-0.46491188634335434
0.06691199082205569
-0.03447299973765557
-0.7099211562503629
0.6724479637075061
-0.16268505525520255
0.7019682148834174
-0.8879786243933554
-0.7702867712376016
0.6263292240898096
0.9437984745025055
0.7890457676527256
0.5935978832671152
0.7478173547407861
-0.30803206814966994
0.9248326540524574
0.21076414776341923
-0.8102909746583374
-0.4036445339969079
0.629517444258693
0.35548750405165236
-0.46658953634015493
0.8032833916850891
0.2450908373127509
-0.13974466585057813
-0.6301033357317146
0.5884390960403295
-0.32494407725946617
-0.8949172863485726
0.4482220638683633
0.9557329877880574
-0.46590787933977973
0.43197720888504565
0.4825432544498011
0.19582377478920246
-0.3707615789948158
-0.02186733421998691
0.4619111265159828
0.08890764514943415
0.8062205560680308
-0.8316205194052405
0.22155656570040555
0.39066014518472053
-0.8482388483635634
0.6960488644793739
0.645048748171259
-0.9913728223933123
0.7753503485409842
0.6698483465654006
-0.38930095343339044
0.033938352090266105
0.26780818799604633
0.8982416096205548
-0.5616071444214527
-0.6631497248133149
-0.825200891546536
-0.5069335457106304
0.992204131908118
-0.131161531599307
-0.6242326721682391
0.5080985229904565
0.822864028595962
0.7379465749358775
-0.9303900078019715
-0.6169431164684771
-0.3504178877942309
-0.6825914746086932
-0.7599365688235272
-1.0038574219246514
-0.491743021051277
0.545102527191303
0.760005316353305
0.6230311470385103
0.6018281587004995
-0.8764427182253826
-0.7656631956555062
0.19621145250982222
-0.35133898285051063
-0.3378241111400174
-0.07184436354514188
-0.15365635352013818
-0.5841395507071302
0.34438346838397654
-0.3682084745284833
0.4660055585966612
1.0403401510181993
-0.37090092528126467
0.8264004135405788
-0.6869998962555979
0.4686236544126211
-0.080579026084164
-0.9032707854585389
0.10175702764654357
-0.5914821910279038
0.2804517187851994
0.3883713594632918
0.4757752702575823
-0.1683250997007392
0.6667024464772814
0.7392421211785868
-0.5267869092193035
-0.9414459124225714
-0.3611810788114389
0.12131716066424432
-0.02753556934369771
0.9497383337761921
0.25810868184529795
0.9202335343872137
-0.044539302739919
0.40619595432040395
0.19054293680631185
-0.40203195625378163
0.4269059674802612
0.36196319138456956
0.42752284324365497
0.34367602277067977
0.6257695771136291
0.8679473024531187
0.4124704011319707
0.1967193237592932
-0.6840411505581249
0.6244934747172218
0.3431597167856711
0.855124704283975
-0.08688047410636944
0.6098319156106513
-0.8591566552540293
-0.2843592659290594
0.08112606922937997
-0.2304216747809128
0.9725005350696505
-0.09763758127357577
0.030541481438409922
-0.7924450607111924
-0.5358710603063843
-0.6750661892001328
-0.7683419966475651
0.7428787662736795
0.5119296644439889
-0.1779028529562524
-0.18789636032630921
0.4526322457073394
0.8266874389909652
-0.2772330976502503
-1.0425731325364311
0.8398494028327481
-0.542134694380877
-0.6500206323217502
-0.9051039816404876
-0.17430265457732091
-0.15461908448022563
0.5005960214694505
-0.9526906064018642
0.6860492149498727
-1.1503212140820354
-0.8970929113021501
-0.8171856599210825
0.821608695132258
0.33489279420189844
0.6381912332922086
-0.5851770224804481
0.8663625774328725
-0.060969945563151565
-0.6185741781466365
-0.09927428930562153
0.4427337315203444
-0.020329089013823676
0.8240000877769774
1.0483681828962825
0.8054922663411461
0.4377450131270451
0.05950998265760085
-0.9418813188959979
-0.40982524576779455
0.7174785327765967
0.7108140343758302
0.2087847595048218
0.5771569523195669
0.008489293103909916
0.03752474330087647
0.6209191561141157
0.7835465053637409
-0.04946444485040785
0.46413014218423354
0.6747742034504045
0.3379671679169844
1.0163045355526164
0.685455014985894
0.07630099634421547
0.5041972690623819
-0.9636679057130062
0.7856420022650997
-0.2239035340697575
0.6374301696322686
0.06634625126653117
-0.6394330494137472
0.8325860779329691
-0.5717610065571225
-1.051620392542711
-0.273963554886141
-0.7248515506489535
0.28103800768026915
0.5520175769988522
-0.5658578025654638
-0.7434863716789728
0.6649505027495243
-0.48935296303964015
-0.16811483282686518
-0.10430015188369499
0.22938753084658675
0.8027361839811586
0.9637804157968082
0.336795083597808
0.3664448423981273
-0.7504604680673276
-0.30143379164904827
1.0320400555641576
0.29765364687970136
-0.322671076945309
0.32822721109124414
0.09066249621768753
-0.834163118168861
-0.43452330990297383
0.29486151547384587
0.3585776625127359
-0.18343786826859587
-0.9676428742250085
0.2808617866964022
-0.46930049590598477
0.36009910539344875
0.5841048156413966
0.04888570159765993
-0.37514620812953514
0.04954904448584818
0.5228173438602552
-0.92003588245438
0.5610392456422808
0.05368575134349828
0.6711524688623407
-0.4463599637120477
0.3589317376054588
-0.0506675251912959
0.2384953627457271
0.0485343673224808
-0.5347240991813224
-0.6689672203138882
0.3647738309423081
0.8172297759228999
-0.8055737819003198
0.690622141013067
0.055863283754133075
-0.6228207178229206
0.9231319756027014
-0.31484907394126166
0.49974951258685696
0.255138626322472
0.6632759358036237
0.545908238224194
0.2064681575706856
-0.05053904588302885
0.4103082726519799
0.42100892338857193
0.45342058556909187
-0.244151261450004
0.4736323628991255
0.33758572624575434
-0.7912687667308266
-0.2949785592081007
-0.671789993411179
0.740219256456868
0.25690663500550814
0.9276749046281806
-0.8583527586242685
0.5966190837091804
-0.9329771486699521
-0.010698959146345981
0.696794529254994
0.3765460580482474
0.6552263215942065
-0.01499485798674922
-0.6893239960697236
-0.16474359722792273
-0.4023744656260101
-0.1127646349510515
-0.2369159477445467
0.40818702445768656
0.4781247283152539
-0.8405705077389175
-0.8386340525833291
0.5963740903971742
0.35189531071821145
0.3360542566370229
0.7809699017741338
0.30600567139042784
0.3591295455776533
-0.4248825359162617
-0.7694574279977217
-0.5295477341878215
0.25245601098949144
-0.39641712411402635
1.004333254668899
-0.7909240772541035
-0.09279837772138377
0.0487946255376682
-0.5427473170964772
-0.6442804285042939
0.30607257771247
-0.7604882212367075
-0.37237262554844736
-0.7169238143854758
-0.6331794829986969
-0.10682852952572275
-0.22377916633623599
0.25061524320467543
0.8972685073343204
0.5062476300534497
0.4502457176703755
-0.01641777880148048
0.7951136512892502
-0.9591293639818035
0.918146443740073
-0.8027811574739777
0.14556514346747362
0.6864353795478926
-0.13337434369213427
0.9905702253894296
0.03759732124362582
0.2358857475341208
0.7913832947345149
-0.20900854589335469
0.12834867887623544
-0.4118804698032209
-0.029281642487245102
0.3195642820417071
0.49881066068296614
-0.21769875690197973
-0.2185898213097069
0.5959974962289682
0.16378277839734043
-0.48805949861495623
-0.8154231533799533
-0.4201778904551903
-0.03101311605895921
-0.6744356586063838
0.23425754355785072
-0.4856914203341328
0.4851525337052898
-0.4608109276802156
0.6788076366757562
0.4562584927258732
0.9583306510210647
-0.8742022018952337
0.29521400611530885
-0.5672873229713745
-0.289923436712282
-0.8746206992903103
0.557193594762647
-0.6562076912981218
-0.3600690779688753
-0.13412614422178581
0.7670803075988905
-0.5304056189680559
0.07320797634314757
0.4833472003291577
-0.19158817698825875
-0.48908134256348496
0.7447845518003462
0.7084314784778004
0.10048442527995821
0.14641093347685044
0.3019526051090546
-0.9769841965160656
-0.7958104607831153
-0.2135013453911054
-0.09767947711582649
0.6604755041185804
-0.9285274138211913
-0.6191970336478134
0.04518784692259928
-0.6812836196859959
0.2642092341208559
-0.40404743652171643
-0.6943754154685706
0.61749167941017
-0.7714179988384805
-0.515117078309803
0.918981767056656
0.6343542937234566
0.7718178540255488
0.80118219125871
0.5517082529048567
0.4777001134551972
0.32927054025559277
-0.5385369345872917
-0.8401284494949007
0.19223096922228067
-0.865598658788191
0.8254050923216094
-0.42384552425099326
-0.9068083513603497
1.0182251401122628
-0.1411039823820607
0.411020175999879
-0.4994307463190893
-0.6337958252020581
0.346313701298009
-0.23858628941575488
-0.5782670047853823
-0.6283369488944087
0.03634398082278604
0.45894499668822203
-0.12003790797478958
0.1664360803665968
0.7158111081655407
0.9104203346688122
-0.8417744362663048
0.21721681829474376
-0.2931120298847413
-0.7808823381381623
0.7005634967368368
-0.3217168338537713
-0.6677516502842078
0.15748705676722097
0.6108582144075122
-0.46810167767353594
-0.6908685826259366
-0.8503475687485923
-0.797512088127822
0.12541559978928735
0.23009026168697422
-0.895514784191191
-0.9393646104975917
-0.11859303741139376
-0.6988119441956065
0.7002751976250702
0.3893184386777086
0.23367592963232983
-0.4642079889042407
-0.36404141573107873
-0.02971692505249133
0.8875244633290531
-0.08797755274745629
0.8364786538331299
0.998101178538772
-0.7409727152561166
0.991417382073695
0.7988991588373145
-1.0169151057302397
0.15910257389550067
-0.3181887421540057
-0.6145619567241837
-0.693548516866605
0.9407163513403981
-0.2784151117842539
0.15752844395896276
0.5538596994765308
0.1979661243563715
0.09368791668104579
-0.37435581412291563
0.22309421913799016
0.445887840924248
-0.5680553444389888
0.47010630094647493
-0.8142180457283842
0.3543720550263514
0.283688140972244
-0.17773720945124982
0.37199365287407316
-0.4899326600965164
-0.9135818536443636
-0.4816814450068838
0.4422805929476005
-0.0693830593871639
1.0059577417254835
0.7504140730790606
0.6343688841664753
0.2994762326858422
-0.49054733916253057
-0.4594825907468265
0.42000310249857287
0.9295927480111318
0.44617715800043883
0.21178257592720037
-0.5449224298649352
0.26704441628019243
0.5701162820488291
0.526699817042524
0.9022209602532869
-0.44483991957233027
0.8007573294185758
-0.789323040623464
-0.978945762613284
0.7170065758434719
0.7235992292148471
0.2747367945377572
-0.08835971379865279
-0.24643515167788424
-0.18369127747502315
-0.7864764254197935
-0.0927088411025438
-0.6765792026794771
0.006470847576179426
0.3101291751028198
0.6294648998025624
-0.6386362791540467
-0.16505036819911745
0.703817302042798
-0.5543585047356319
0.5482676962019216
0.6874113460365527
-0.10222456359818535
-0.3770903328058975
-0.8222599731121036
-0.0811268402736705
0.5280892458987558
0.2726569779792641
-0.07420646702655934
-0.9249620154584861
-0.016217631400068013
0.8691206474284262
-0.389287970263938
0.47136135619866615
-0.8783870745074882
1.079293672298432
-0.9430967505568448
0.03603908175581675
0.5931383792793696
0.47958070632450006
-0.2687519707834334
-0.19479071876020648
-0.38648769797783594
-0.6679017018259028
-1.0037307292326807
0.8690488823382253
-0.3528756707851843
-0.6123282134200173
0.7287267077105163
0.033429334528058956
-0.8390858212496338
-0.4401858182597956
-0.8294066829932107
-0.7933053177798899
0.4402044228675136
-0.6039333483166387
0.23956063519536028
0.22794027396673766
0.7506873285657769
0.892147253348768
0.7392914686647719
0.3831168260344864
-0.5255793496108218
0.07213317426476389
0.1947663246343168
-0.4187375318032052
-0.2457336702665802
-0.3483640399392804
0.03241593411081321
-0.18916389358862132
0.08300589733206319
0.6096795777703365
0.9485111216471644
0.2944472831605498
0.8451532016547657
0.4770466699176886
-0.5609202038172961
0.02662531460457201
-0.584091632587678
-0.2447399902332162
-0.6322620749938865
-0.9800998455557981
-0.5554587464515167
0.5138942753762666
-0.6046074755627003
-0.2480996118941233
0.045552921923934224
0.49324678831422814
0.16366883070758478
-0.05129515721725544
-0.37124912194268755
0.6877077324826799
0.10233985881584393
0.08105580369439586
-0.34538239014998035
0.30048546637286844
-0.7898863335204547
0.5495536572844377
0.004911822214215904
0.9066414063991282
-0.9497109157727478
0.8900428287604599
0.8416273489894979
-0.15826514874881317
-0.08889116134086504
0.7943545542028699
0.0829671344955484
-0.8380571958984807
0.22002497135249294
0.32482519678002136
-0.1583747862203117
-0.2268181693954287
-0.8498491397238093
0.568069607107907
-0.09338054778584759
0.9011152373756589
-0.18241890927997773
0.8672481095842083
0.44010767509985077
-0.2113841185636186
-0.39740524715662257
-0.6291615251323139
-0.28674352110746104
0.5674969232172148
-0.7407594597436178
-0.07290275509070511
-0.3913060257593792
-0.08562700567701023
-0.13169231032612416
0.9750589438651655
0.6123202602019154
-0.02874114891813343
-0.023153714696728382
-0.35324138790420295
0.41733164054530814
0.6441211265301516
0.11424841016661615
0.2456820235008375
-0.23369184053068862
0.4278408420783393
0.5267679417464877
-0.8270383335349588
-0.42105856991196555
-0.6729911765456079
0.8722011813677294
-0.5084731245717795
-0.36594363557144327
-0.8650353366363629
-0.7629143541504827
-0.3147374032108595
-0.9004073216952264
-0.8714622472397612
-0.0076161860289375265
0.8617024470026897
-0.2327613760738221
-0.2457686778963002
0.7436233164542526
-0.8839521997078809
-0.5607888708912552
0.760225767228293
-0.2936412400044646
0.9159420491988786
-0.38537011847114916
0.5485562985542367
-0.6350418981501949
-0.37689765886643595
0.39726321069301607
0.3852483339971656
0.6871131856418093
0.49380655159410136
0.3932203662604912
-0.21800703143769543
-0.2477005335147661
-0.08030837884643298
0.2479344333501309
-0.5253714980686872
0.5574684708927758
-0.37390927666171486
-0.3388860215126323
-0.7962763360702035
-0.7823407849430146
-0.8174400861908898
0.3977888805149225
0.08642385111567917
0.05476514883765291
-0.38528652228099414
1.0858097220413718
0.31802143945876993
0.2071884205696989
-0.8476182659698254
0.19090920828097638
0.2479554642157038
-0.02378108995484093
1.0081616754813436
-0.226218222180008
0.28589439700116587
0.8094385149889507
-0.41434393115668255
0.8798778489493251
-0.06866106155960933
-0.059201728659637666
-0.3628625149535626
0.5910993484027485
0.305755310202227
0.34415032654605326
-0.09014481013790673
0.7682654502061943
-0.8753985086681975
-0.14804035984299282
-0.42476292420347767
0.0060900729941388764
0.5110210816343581
-0.450049503879826
0.3369372010065693
0.9602255139623841
-0.14940326195151574
0.6027487621852936
0.5207833406375811
0.27679791091417943
-0.041819340152340734
0.13517364612510624
0.17315361561952838
0.9299181595578925
-0.8276635022400187
0.37209028304515745
-0.9319646689056099
0.17436119150863627
0.4979181694048431
0.585265110723697
-0.265345356581572
-0.7638420029064644
0.7445965602749225
0.5971911228280461
0.0726008395865355
-0.619738093266992
0.9061894783175936
0.7628437135635157
-0.07386032790666319
0.6922081791026509
0.8174090524407261
0.6772609161305793
0.1712834782279788
-0.5568324081351533
0.2949752329795091
0.10745616341460676
0.8323405867997776
-0.4519378298583794
-0.6518506048412376
-0.11870953656868159
-0.007834986897885745
-0.7073688016300657
-0.21193618579149798
0.7685025400740183
-0.32212488000679534
0.19399294316008095
0.3785302000303827
0.5330648008848815
0.3125565875598443
-0.2707579444338047
-0.35576049298232726
0.6633833875615052
-0.09736835914189816
-0.9054004379237726
0.6407003930844787
-0.9575292568649573
0.6153986557062747
0.5334982678050562
-0.9768303745498877
1.1846914719386241
-0.52649957611745
-0.32954269724557955
0.16888200201975762
-0.25016018584324357
-0.5214133088422772
0.4667742193192939
-0.7346099355706591
-0.8318387997778931
0.6894130891576299
-0.458268538533837
0.344590047777918
0.8695570523060041
-0.31503387173440184
0.1424872161496885
-0.1609786623721725
-0.9457534632154286
-0.6276478955570407
0.6062151243839864
0.16749054346281922
0.17254961181448863
0.5741576692981258
0.2572166258674936
-0.4536445007318353
0.314672698276378
0.22260990675405928
0.8210680475363968
0.6508310319164873
-0.5127321263934979
0.8095672349516616
0.05305377103718178
0.7730930785188114
-0.186730620870664
-0.337894974490478
0.5206229075419405
-0.9063887482812555
0.7611871214141758
0.3347016060855502
-0.48543948724980873
0.1341887986161828
-0.6004149528000021
0.10297655063508258
-0.3746647502823558
0.07537724718472329
-0.6276699225459879
0.861560018836052
0.670212714461879
-0.5606963612358039
-0.11887601529176843
0.7577862124167419
0.46361553658290966
0.17208987424321975
0.01314962455790719
0.7174899690761838
0.33781861239055516
-0.5281501024406614
0.012257700174332382
0.7122728562997823
0.4171645457903689
0.5331730256641837
-0.6600218901886439
-0.485037949030084
-0.7987359184469156
-0.6998004733649488
-0.48800686965138707
0.3791682579068587
-0.33766542951597706
-0.9348848362536892
-0.018615780515952737
-0.2820661670054194
-0.11361461987008464
0.8800005404825804
0.4048389399943651
-0.50476020307838
-0.7019135573564709
0.8765645295597484
-0.5127427276086902
0.42199474340445925
-0.39451131729201694
-0.7204116075405713
0.7439730707664433
0.8974311786125575
0.24719532863533253
-0.809930986050555
0.29403187931418584
0.30782405348147945
-0.3837885602314816
-0.16627516241651272
-0.09922100963408728
-0.11507691059081422
0.8259359605101816
-0.5764723932192525
-0.8694362465154004
-0.13077244043855119
0.7444423646675594
0.5702915081896003
-0.8653794140241522
0.2687548005247976
0.32315357832695635
0.3921448934034497
-0.43259150661749596
0.6522756056462439
-0.584349983377705
-0.29330542719678854
-0.8591951855738783
-0.07973787551332641
-0.13681606397856916
-0.044939514553152086
0.25245896780392196
-0.2780811283680039
-0.9233357868478698
0.5293369964207075
-0.022207611692811713
0.42159376485299566
0.13397222039732234
-0.32315794192978636
0.4939178659847439
-0.1814057974054992
0.8833325744072288
0.06791330710778255
0.26672096852298766
-0.0039615532351974046
0.4464509923706061
0.8051863315654296
-0.8665746283423222
0.1439906881559824
-1.0786098018294579
0.6397601591997314
0.6508417319221056
-0.5409073259184872
0.8795067136869774
0.4845059022556416
-0.6041674965831267
-0.37779576917915314
0.8813137801213287
0.5521550875495793
0.028399277066474046
0.5992239781662243
-0.4487408473569803
-0.14015725029987813
0.5175345205576194
0.2396108021743784
0.31133701891486165
-0.22473738710494776
-0.8286055882281228
-0.7294372277857053
0.3451963046057888
-0.6987672530152168
0.4130567560673223
-0.3953997746837036
-0.5222400865937662
-0.7122429148786605
-0.6017751650345161
0.3495359309347175
0.4625314502841466
0.8839338229732646
-0.37424042567394367
-0.08618043354385313
-0.2867379573974081
-0.019999133082858254
0.6861763909630575
-0.07423356270793217
0.417940199157182
-0.8552103126862389
0.6843657034954018
-0.8223803159538942
0.45364104133321426
0.5530523979000683
-0.3102380709717237
-0.9729791021818314
-0.09549247198232223
0.9991687119367868
-0.6573058465845744
0.45789119506547205
-0.46836235265268433
0.45595247236181113
0.6469637243146938
-0.6835009477660716
0.012877122214175947
0.6030565575179967
0.6792624171363915
-0.5012347509548813
0.81566284344191
0.9495385411322323
0.7590751868680232
-0.7457029009390242
0.25071679675309994
0.2908036205807853
0.11577587664081634
-0.35109219792600777
0.8419414581468575
0.20571923233642325
0.6326483273638512
0.14898437785822044
-0.7605055480946181
-0.631147984740154
0.7333193339264059
0.8308230703984937
0.4944758761528473
0.8389828450468728
0.1340834989242316
-0.41543317568868676
0.423096824490907
-0.4532293136896
0.8153715286450873
-0.566278900053502
0.35674574556084726
0.624559396739987
-0.6542075648831259
-0.06027028831214657
-0.3254217383234868
0.8150421120688351
0.4296838635624282
0.06016561951139328
-0.09597120393888203
-0.41022996026028635
-0.37468658031356916
-0.4795248260431513
-1.0426240163251073
0.3680654886997874
-0.689963777773335
0.8010165186139675
0.6905633603097646
-0.3446542196390331
-0.2842111931531316
-0.945319970267106
-0.9217381191045775
-0.9581085541679507
-0.31154673900764634
-0.7726415003978038
-0.8722118762274188
0.3877850508013591
-0.38353296094353057
-0.6827507859790991
0.34932599247678797
-0.9274560148016224
0.6080685708797067
0.09521224435303068
-0.5406970195896335
0.6139687876434651
0.02226698898688006
0.01032762723952736
0.9763685790096641
-0.4749773193338792
0.9241463960042804
0.29541066488870404
-0.7605231960452628
-0.4699112135176923
-0.6027598560601748
-0.02923849794586638
-0.21904726752091305
0.30739902893620585
1.0040881186890345
-0.6706898173144592
-0.5005322896831269
-0.10371764002899883
0.5318118493976047
0.29524171406985955
0.7432380172743716
-0.4808058620415733
0.26542575464237644
-0.17870056475608087
-0.7476560469669371
-0.6512431467449181
0.15755721598216607
-0.2368048959062204
0.015354704541017337
-0.7359339485758567
-0.08250078762640031
0.05142205539225346
-0.12038601649828361
0.23528693978487608
0.3259027766090197
0.1173045352405187
0.30808426501295627
0.8188948045739994
0.23912638258486657
0.6665562074025394
0.48783083138261496
-0.7689725408476347
0.4012990411447693
-0.6039831548130136
0.6301894325466186
-0.43845557766384635
-0.1401011609957334
0.2643359804431061
-0.2600178749300091
-0.9739861830538246
0.955946040651447
0.2340042717476973
-0.5029926616229854
-0.17770881331123767
-0.14851578513683508
0.40321734872003373
0.26317388185074886
0.9469226921992864
-0.5484135218557986
0.6525894636695462
-0.33735155968569214
0.5260506947442327
-0.2822980033705625
-0.2789184602051746
0.836307751346528
0.8132665051163102
1.0069217119020204
-0.05518613963010313
1.0431763796053857
-0.473578556911725
0.5546926415255478
-0.7675282242851975
0.24609454943308895
-0.7615701334827577
-0.06233635026336108
-0.9330643836969091
0.5594280461174883
-0.020778404903167583
-0.08791010907837245
-0.6953280028116194
-0.45999591996051503
-0.8715392316718187
-0.8420307224096633
0.2060497658418144
0.7198537959864649
0.8172278955789282
0.9220499378133471
-0.022656821058664955
0.10482360789130625
0.5548152135492622
-0.21393153870777926
-0.7072296753611875
-0.5413557467875477
-0.8653959268295612
0.18465020055171813
0.9639485758794706
0.9275935740107966
0.7305580829415611
-0.3774870513001955
-0.6469282049441533
-0.3368757186405813
-0.6444465506298712
-0.5866461324808122
-0.1325373280478662
0.7849942216299384
0.7430445236772281
0.39865569057395694
-0.6435768344720877
-0.16894139650881632
0.4963377603804663
-0.7882402406119616
-0.3754221188322409
-0.9798093381096595
-0.6143196902161036
0.2688626538102834
-0.595208371699089
-0.13626295761399906
0.6872505496965211
0.2953787742431398
0.15237208193151558
-0.5364620850003589
-0.08636407884762387
-0.08919624864141859
0.5934864475100242
-0.08255110800973317
0.6473672407298945
0.6329182678756164
-0.41330683383668965
0.5376975966254014
-0.31499161879349513
0.8251009714323813
-0.09048402710880776
-0.8520400794995645
-0.7042046677836796
0.4443949274819553
0.7198131163201315
0.4798056938541617
0.8036189325154282
0.8043458658331076
-0.026017355464674027
-0.22812586507567448
-0.05314232292757959
-0.1905786759411254
0.2134888013714714
-0.25410805661639124
0.2924116875754071
-0.30677895224336055
-0.7689721521817655
-0.7828726879114276
-0.9902408785098571
-0.06211856779977962
0.09770509933607788
-0.12899170139111482
-0.47056600688460903
-0.6832883377548584
-0.5289712149731354
0.24815383105715488
-0.5131126284005552
-0.027872970685427132
-0.8764489541248822
-0.26471374057272207
-0.515174598098807
0.9340255762070792
-0.14001343239749495
-0.87175505389356
0.5016196774820191
0.3245803938639102
0.4504937274833898
0.5686177919801932
-0.23331500424438056
-0.3428101821130155
0.5914123167691822
-0.5831956371634072
-0.14671401756924032
0.8781367230868289
-0.590463313831652
-0.09534603415897955
0.5234246709310619
0.17424284164015263
-0.4618695432341891
-0.29104440617850286
0.3720232988163589
0.8548436191692943
0.946814589732021
-0.9235446313511173
-0.0075731922148365135
-0.28188953833225616
0.8919082972658456
-0.3122698903668188
0.7612162214046846
0.11779753728950648
-0.162616761986706
0.009669089904235484
0.5920130847579217
0.07743981111727836
0.4031097060465471
-0.46648438728155844
0.17255687299852127
-0.0778056369928914
-0.03676860941363367
0.14753142049119777
-0.15738070631061638
-0.6248998491979293
-0.9487642034993687
0.7993505829429188
-1.001353166104884
0.03140011820174357
0.1940261678049132
-0.9145767022630696
-0.49752418668190956
0.3286341880401039
-0.9582542008452294
-1.001511173293581
-0.31777763189944314
0.2692457350863921
0.7023787858173735
-0.3285793401388522
0.004917363848587795
-0.15052888526837818
0.8516968022067175
-0.9022347117590597
0.515864775415217
0.7756519106434345
-0.8848215155574666
0.4477255871828267
0.8097677046624594
0.5306732719044768
-0.21150902992468706
-0.6377679116871336
0.035323774858184435
-0.8299587775555783
-0.36619651819753624
0.3524796734257452
0.0852436950844842
-0.6911971814703128
-0.3201878890451706
0.004763994459829039
0.5515517922807789
-0.5321238332912228
0.6722493980372525
-0.9967154990986364
0.9455475877458234
0.09925598621721204
-0.8536973103717727
-0.49515169448310553
0.8710441245399834
0.3969668366008667
0.8860165781395659
0.6733833651686169
-0.9665765641940088
-0.9661671836264334
0.0996877179062871
-0.28753280075603305
0.32868467458694717
0.2496018269112855
0.21716492031201745
0.9758278972785869
-0.7298136136801159
0.059375496189547884
0.2938988316485869
0.5166690301801303
-0.4698988464812614
-0.6270076754423882
0.5688687682483403
-0.6469435295939037
0.5216852375527293
-0.704924873897324
-0.17940506764072833
-0.9721432192005812
-0.7647474325042612
-0.7544638141709615
0.06444528405735932
-0.4181999822205972
0.7662458401733538
0.4146091081861068
-0.21907580361527715
0.5184183410967235
-0.6000574631734219
-0.6602919619525033
0.6776516800605414
-0.5670600193416024
-0.9920455157770465
0.20589699896466712
0.09856077311746447
0.9146424973097406
0.8850747814305169
0.47074106905504853
-0.29017523851466515
0.6383588449296392
0.3781745511131578
0.3062951046162015
-0.2458436983023595
0.333952138059315
0.2600120533650564
-0.6941722369374944
0.43567723250041934
-0.7139905498892352
-0.6450825338666363
-0.2738797805445526
0.5818991002749899
0.6913879228401962
0.8669747644669118
0.13259002204695383
0.42427959527538717
0.08423014643285402
-0.20305769183467892
0.26977530211278794
-0.7576777188346359
0.7978955842791007
0.8805312981749874
0.3729481841018011
0.2221893228014395
-0.4808020483867266
-0.09033162935836726
-0.6948259739815755
-0.5210755401705895
1.0433862956902127
0.27775715186105193
-0.1192345581588615
-1.019754002842166
0.5502015952848698
-0.2716929246016854
0.745402016327015
-0.20520459260709512
-0.544585099264849
-0.47584314286050167
-0.36908370799148704
-0.2071012399047528
0.8492142204920187
0.5692718425916223
0.15883821656349326
-0.5416540558302769
-0.3200847156951905
-0.572185236698227
-0.21589181203385147
-0.8062635427404956
0.5780910032820842
0.25526045659918106
-0.5349469292141974
0.9035373215501885
-0.9740699959260858
0.4567555448889739
-0.2122886600303029
0.20330589245798508
0.965408628772393
-0.5710330395507732
-0.3470195888645047
0.5711650167788522
-0.5261116585559382
0.1502583081765282
-0.7345950289692611
-0.5113169963959953
0.13570352792039445
-0.07647552501593473
0.47182016310824393
0.8442097583969291
-0.8861768570442687
0.1883015130427442
0.9155827456867043
-0.9230521357713655
-0.7181772365778439
-0.029365505282493615
0.7704079685857129
0.8583599505476147
0.6719359931036871
0.10747032163060971
0.01859391180955495
-0.2846417727360709
0.051701138756106935
0.9209843814887486
-0.8518877789896826
0.6323981397461639
0.22142750049228657
-0.31692704405244526
0.6376308575631641
-0.3316811638407239
0.266308245347856
0.2604005003896454
0.6029700132461567
-0.6211150426877733
-0.7924281110554061
-0.8154652060024772
0.7293286405405359
0.9277630017963646
-0.15524990630470972
0.5773972941792918
-0.6407994552759549
0.8123170134138371
-0.7612350178895934
0.75184479062899
-0.15774278096028124
-1.0043256673591563
0.19701796456188436
0.6907993041153263
-0.8783325432559863
-0.8672251468681988
-0.14535268056822123
-0.30830815689666713
0.06470015552421109
-0.6364406745496353
0.6772410101545773
-0.5239229303408618
-0.4143622430562993
0.658164549452818
0.2598099752282266
0.14862925482648567
-0.7408008596011872
0.5870377209168889
-0.4606607165677686
0.12797529335600918
0.9305736164520484
-0.760856504918519
-0.2656492793724858
-0.5814048101484054
-0.3415586587043731
-0.5882691618741067
-0.9741619143687198
0.4324372411919369
-0.7238872575760648
0.7857953286425206
0.9415814720022153
-0.07679734347672008
0.8831072436223755
-0.38745359220120695
0.5178092015828881
-0.4545926703686401
0.9519766339248371
-0.14407452188427358
-0.9146428356658622
0.28343593003260475
-0.9619195106793186
0.5411418631615988
0.12426009481677328
0.3914053175752837
0.7703104053839329
-0.15046365162612235
-0.5888091384983006
-0.212317814165415
-0.20001316697345564
-0.7942832638817424
-0.7946002691348805
-0.03183795416738035
0.8286270659803916
0.5787260712473765
0.9005839421044388
-0.8731696294405275
-0.1609811484354747
0.7030535709991351
0.1404296480559589
-0.8791439901929783
-0.12676090766627934
-0.45109358873488914
-0.5445986018159487
0.5793812938185319
-0.04013356858066698
-0.5371325000137762
-0.9300912472381985
-0.3428885380292647
0.6531053138582631
-0.3787317862815898
-0.01550446522860769
-0.8895516817006062
-0.6131125846459696
0.8906273781473704
0.9709213952942463
-0.8021187673312634
0.1552521389665544
0.6789240374860055
-0.43088765102841503
-0.5016819154769012
0.45867305385316254
0.9630653088886817
0.5087911905813636
0.7616524612801846
-0.433055058325165
0.023025116652536353
0.8428559037770449
0.058235633618085314
0.6533201736147338
0.7925455237062333
-0.8768971091296085
0.19192748605493182
-0.1567012435017344
0.32876425655538155
-0.6119054237528703
0.513982488669167
-0.4166766035595019
0.015381284263510374
-0.10162474361373632
0.06840936690910596
-0.23797296300389914
0.5689398843830347
-0.3933760622447608
0.33510277057245164
0.6462018535565588
0.027341196776665935
-0.7726644683333727
-0.3037207921697814
-0.23453044613135096
-0.734939346311448
-0.4337846227740201
-0.6681715164027353
-0.25653795988244676
0.7122824571133402
0.3005247249380309
0.47291917033498354
0.9946653275989948
-0.10540174040904118
-0.6837400002919944
0.9379905832455013
0.5909370487434054
-1.005295271237014
-0.4627778234082802
0.008685375486123957
0.5968858373938795
-0.190236543725836
-0.5243675518246199
0.4350037516312346
0.32849398356229875
0.6079278051469709
-0.5165137083277143
0.830497321708209
0.3438943214151477
0.20818212715497594
0.4227957033440732
-1.0837235066581357
0.27509998331115776
-0.9890983045631146
-0.15916673420973218
0.27801241774722146
-0.0587485582964494
0.941084833904299
0.3875598931582691
-0.37526718079040766
-0.14070862423504285
-0.13415330416745497
-0.7759141947413196
0.051277981130942334
0.16088641365536416
0.6310982498564721
0.3404645698304935
-0.5532140131403429
-0.4660790206506411
-0.8825407488260544
0.5451213746367433
-0.11702694922409262
0.5487073787370431
-0.13261313976907046
0.8205692609741216
0.7715386779710915
-0.3182818250008558
-0.40318880393558953
-0.33757516975994384
0.9843296136127999
-0.2773870779074305
-0.48628629273684076
0.2646074509580705
0.9803523117000738
0.1983180022140835
-0.88273776405442
-0.16802437031681342
-0.8919452616889035
-0.6979848425633376
0.20107229109863617
0.26533225166291824
-0.1943352980796318
-0.1139062323113259
0.16542930302455897
0.3729667905382241
0.0587803388262949
-0.4382477319936928
-0.5127145198837839
0.6102251350366069
0.8953148274455484
0.4645825510774395
0.4347582692210713
0.6701329517927714
0.34450160356576204
0.452815562854456
-0.34457103704384123
-0.8495678573712291
-0.8469096249432699
-0.4632289450438922
-0.6842406601192682
0.21946540390261582
-0.6716183182502626
-0.28171433400631074
-0.4076223772269341
-0.7653392561383922
0.2385740987932477
-0.558627635819537
-0.10616541964573482
0.18339012780615804
-0.6016603476271107
-0.18266947027108857
0.9038677230283602
0.8045490534776201
-0.2739689172733959
-0.4589490089153365
-0.16868536322864913
0.5214829402056792
-0.9187860977745806
0.23720994233020337
0.9599823903635645
0.19466680033172523
-0.7174375742301177
-0.971959883348739
-0.5654362869224415
0.483288808199471
0.14260316363510966
0.591007062401426
0.8840782559907008
0.7517090573583987
0.008315553155534222
0.08578069146195907
-0.04928623997374803
0.6976006962680682
-0.24232301185731525
-0.9500892471806506
0.331871489296043
0.024349637572403746
0.68181417810178
0.571056596462991
0.10831844389742279
0.2870131805173581
-0.1902000378567924
0.22122985999126563
0.13692613866758735
-0.21644000717732842
0.10319924001609396
0.4624535388751572
-0.006538091711631955
-0.7524135123981649
-0.10817619516034527
0.14820715719781247
0.12014204309742324
0.781218388489584
-0.13597657277265604
0.831552957250906
0.7360719217353602
-0.4375685091003159
0.7027905654882708
0.22635850221307793
-0.1163724087792394
0.9748988055762928
-0.3806176394701671
-0.13601604356845604
0.3411204661513615
0.4062341942531478
-0.8146925393195791
0.23659339965601803
-0.18922398672266033
0.16173732805588334
0.9475839567857732
-0.621568185814976
-0.6448639808403634
-0.02817516886051563
-0.283041884472394
0.5325253185401086
0.9164844091225973
-0.5015122737422553
0.3740611152410623
-0.4341532014261516
-0.4658443192527401
-0.47489412681210513
0.29423288616159504
0.7056534945444223
0.13847715521129078
-0.6944292635246598
0.10111243423033175
0.9308452567569769
0.5545711844236143
-0.3794222235262126
0.3419109735107716
-0.823639684668344
0.31558701068571093
0.499897435083726
-0.5741601490955293
-0.07231078160722021
0.5854588288761198
0.49641941502533765
0.17732891990851557
0.525684335234869
-0.3150716310249384
-0.6443360156867767
0.08650321183748058
0.11171705850284382
0.8904060368157845
-0.5672497875886728
0.4925376376307832
-0.6635897087707014
0.5979222421731392
0.8430724717578465
0.23843422583239224
-0.5733923548290997
-0.5767375814076569
0.07339720045639592
-0.6960742814441815
-0.5954709015363476
-0.2540320965629606
0.7805481555297683
0.8975950832028103
-0.28078167434499574
-0.6686010967265262
-0.10009212241574794
-0.27845538926735774
-0.40607223440461965
0.13423867527553132
-0.43153051645723456
0.6515462321358748
0.4719629806565693
-0.3913547066649415
0.1809415663187574
0.24366632407999766
0.0035906145111829035
0.09376422918129657
0.38564200718938546
-0.7729184311902464
0.3488543140562902
0.2045259285772747
0.682159032893435
-0.7230976171784022
0.9059009655474904
0.7438106629942629
-0.2593765525797667
-0.9262512681866747
-0.45903239214953584
0.006214125071836797
-0.30747857592252265
0.059855904154198496
-0.06993319354674955
-0.5048538001469929
-1.0244444141421751
-0.24313747358221355
0.8711043462219757
0.4945498635482669
0.22678470585880067
-0.8103008253037738
0.5657251302346872
0.8048449393235935
-0.9428050530573363
0.07577718923027119
-0.7532197110470693
0.79933494458542
0.34750966427638036
-0.5132723740588955
-0.6814868810660848
0.4375073622451919
-0.889937724064128
-0.11984691215436748
-0.37431605396407003
0.25918460442376395
-0.69772354869503
-0.1656136380154264
-0.7883015150002607
-0.13801464797002794
0.19439578420404913
0.01122975570180409
-0.12424392573600392
-0.49605628510648747
0.9774840683659809
0.3306105565873735
0.42188620706059055
-0.47863680582858303
0.6928916366604039
-0.023743212062221648
-0.9546548583867063
0.15537136631433965
-0.11515331821837935
0.46715298560514434
0.14958025843541262
-0.8567979461501293
0.6205410327367704
0.7586983428520198
-0.8263058880264558
0.14394144199457495
0.3139216926304314
0.2115468600843223
-0.4220444107385738
-0.6327033573652568
-0.3702348703536237
0.42645755033713784
0.9170119501794818
-0.5820297882790584
0.4543707013952274
0.47037718868345596
0.7675754963322526
0.2688393312265481
-0.41308607318851975
0.38704291421355685
0.5371817862838413
-0.26414739281211824
0.29101878084225125
-0.6140423329395127
-0.17766635717527823
-0.6175578415138319
0.9596476160358185
-0.770229771184779
-0.7999334891320995
0.26704637307248325
0.8215769818356548
-0.18621043489228484
0.5884449967702658
-0.6396220384134663
-0.5835894491175716
-0.8086810646543392
-0.4753170153879465
-0.613053138306809
-0.04017993775833931
-0.8588730553797876
0.4185551852473467
-0.3427232444341488
0.8685300105929713
0.6444888247132675
0.13245602862840672
-0.33966972728553024
0.26846571453098456
-0.7938468509755585
-0.18897104768401873
-0.3150106896449122
-0.9347938671241462
0.9249350546433971
-0.24749466790487137
0.9059628205226778
0.34091918450133774
-0.16496975705814076
0.4939114283787277
0.2658783466493189
-0.40637623829269015
0.8565097676003512
0.9537958222962184
0.5475515336960959
0.18456854050903437
-0.34566936537173537
0.8044504953172043
-0.9375362907579881
-0.780111604378534
-0.0005685601562107231
0.4502118316917332
-0.46978078270148727
-0.8797144958273555
-0.7705633383588498
-0.9217875999326915
0.1903224473296973
-0.14196434544789263
-0.6092945539868944
-0.6433256626877554
0.8050967411033636
-0.6571476987000754
-1.0230588230097226
0.11674733329409379
0.07483729707758041
-0.9912538342727657
0.6616464698196126
-0.6212386787444194
0.1097907224169317
-0.27196602978187395
-0.627474488970278
-0.552765394493182
-0.3432076810790333
0.9740713833226405
0.9180744917626278
0.7363540599036305
0.6039784382626944
-0.2121507385559878
0.902186192263986
-0.5396445111621692
-0.19381557840919492
-0.3431524225479831
0.19027523930193407
0.39331889342962034
-0.3218701095767822
-0.7235199655253047
0.513319058476003
-0.8822310434421291
0.986915605637312
-0.532198923754849
-0.3286686641362103
0.5941816181120887
-0.5355170768555926
-0.6158997380274013
0.6228410317876685
0.49897870860906535
-0.6582476675712683
0.6762528792127097
0.5005051111104122
-0.07337504237639232
0.9547690161138016
1.2450641970235068
-0.8576782409971968
-1.0789488525219435
0.9928863064123155
-0.5975539004830566
0.19557661786573638
0.7293525073084197
-0.37306075829009316
-0.6883514318657492
-0.5205281946539342
0.09965866173606304
-0.34752285594008203
-0.8614128886330958
0.7495541318250815
0.08872172651955092
0.0977691627158345
0.2327939172704034
-0.6396500198465968
-0.5410774910653239
-0.10623798023104299
-0.6802588095151645
-0.11222863916506942
0.15122901540501943
-0.7549171335443055
0.4136911330981238
0.08492217818484865
-0.8984532762768136
-0.8180687337445192
0.5887026923299141
-0.5596632317768351
0.09137288457949921
0.3946636347900689
0.38516419946797065
-0.065680546507544
-0.21306497830133247
0.09918766893291725
-0.4815148687154621
0.8865743910416631
-0.5944726475713303
-0.6432036123278883
-0.5351753671879783
0.8009923497972887
0.49998643247731334
0.49321572649140294
-0.882212164721224
0.2649551150903036
-0.282329333863911
0.34647908013801265
-0.30264105705163874
0.8880991353403669
0.9170700181752769
0.6498925370711608
0.6548134178475888
-0.8616765881656406
0.39017994498813324
0.15699034503205297
0.2528619004456858
0.27072707889079206
0.05253902623890996
-0.31800396638420503
-0.6421507569311293
-0.9337095366995875
-0.6143906219161269
-0.7279245450585309
0.1613692696203324
0.02986627642371343
-1.218493162157081
0.9345533302190373
-0.19733736205956168
0.43955909527828585
0.3834105688556376
-0.4256363835876628
0.8780320623341202
0.38067453385619254
-0.821318281665171
-0.1494951998609256
-1.0227723613364081
-0.4429488009853625
-0.9693775937732266
0.17285888498605
-0.4295172123969732
-0.8538946179345935
-0.3777885743875115
0.5473720301647855
-1.0830379828045253
-0.8394354204376666
0.6807880792534275
0.5199338320364432
0.3437328606324739
0.4772630129842298
0.4108082211998797
-0.8538160429269049
0.6247359000498726
0.15860901939799857
-0.49691966089414147
0.9804444105435143
-0.4148511544568546
0.298467150775807
-0.911270044472145
0.6392859833672575
-0.28162578127949944
-0.39197156304273395
0.5553120431724434
-0.20799939679450527
-0.27395916133991177
0.9868804347870811
-0.6516067267329603
-0.7261584132078671
0.4892280118832746
0.4383356517121931
0.40564337279836227
0.6031311117113162
0.06397133059202251
0.5248495182463688
0.13757182894070796
-0.32450481393170927
0.20711494418084242
-0.6676919535725132
0.5929657629090682
-0.30606758885098423
0.5014209734541856
-0.16734248874538218
0.7820702179165258
1.04411425223636
-0.5277146139175977
-0.9172914285558327
0.12785205718661097
-0.29079171661440206
-0.08452639212945379
-0.3462177048935967
0.20868426193641137
0.5511139185928169
-0.9570669463924321
0.4553528265534483
-0.828757214745193
-0.4946669694767889
-0.45320963951539184
-0.21624537403098967
-0.47130963983799884
0.17665295974392367
0.17149322531922673
-0.08757905761863656
-0.48742442607095765
0.6758916845938147
-0.3590482464112483
-0.38871999049440126
0.347371765737246
-0.9865556349338821
0.4329756228508727
-1.0292585469664257
-0.4286164808222641
0.3008735096680771
0.93907905636415
0.12688754588941925
-0.9022171210287465
-0.8535928497225482
-0.706519160819142
-0.5145505261123824
0.026036918203613663
0.3077204813514822
-0.44365171014379734
-0.6482980198219507
-0.5869581931225565
-0.2578057738643867
0.7033091722462623
0.685073685080491
0.3081655143239896
0.46162714490767076
-0.6162585322160337
0.16289188593352555
0.9488644146374782
0.07653880094226782
0.0023681866967525406
0.5061697183813404
-0.27959182896936274
0.17840499038987434
-0.930848578059166
-0.04102969139730729
-0.4101434511862245
-0.07666153303254791
-0.10941756789864956
0.8068550569476952
-0.8038549052837333
0.6581246086456082
-0.7867245988263848
-0.7320033406504218
-0.41045535146711193
0.2401537105124435
-0.2566519063157204
0.30062987270162056
-0.8372394682692722
0.03894006224799293
-0.30030871479081245
0.5249494592569538
0.32821310080404703
0.02028400931133447
0.3124329068716525
-0.030388311701153043
0.9736479514230663
-1.1274062082410652
-0.3495086371707924
-0.0871418014524846
-0.7662362890565615
0.29482010265374736
-0.029394901280609308
-0.6412936125322667
0.27758391790472325
-0.06579469467198445
-0.6807011933059209
-0.040335680779762594
-1.006005264446153
-0.060691557932446495
0.661299098139693
-0.03224914127618874
-0.20252804277258588
0.9283705740694445
0.24838816315957304
-0.09163299079991818
-0.4471819814800922
-0.8588555651333701
0.28586102662846635
0.2860349169883076
0.37817684542309354
0.886275322601371
0.7670925651993109
-0.6043337053068477
0.555043303282085
0.4986686108583325
0.023519581742480637
0.4867648304556009
0.008388705338011802
0.2801105610972203
-0.24727300982684522
-0.22424783258617198
0.17994994219956667
0.44851512143826877
1.022094099638613
0.19891924579421483
0.4632993440490732
0.2106009649160555
-1.0706870744127643
-0.42350514524307914
-0.6068814006752689
-0.19555404935558007
0.32138047886414467
0.5832264551287916
0.9349053100237709
-0.8843047807752437
-0.4745394441102236
-0.675643284169344
0.3368496001983449
0.04574041204609553
-0.35948885096365923
-0.5303100892936137
-0.9172722289913433
0.49559067570204945
0.8390530271488017
-0.32550962017858087
-0.7120432556419066
-0.9374092527633723
0.49181230595520303
-0.3904596017254008
-0.9229393071163381
-0.5811599117351377
0.9687354766879657
0.7401122409384354
0.48176816294974695
0.5661019474368663
-0.09930093772599684
-0.6683537566865352
-0.23855616033514257
0.6412277131417828
-0.6344853823041877
-0.9786858304244143
-0.2533503971886163
-0.7266177653051745
0.2810049830818097
0.5784956702390437
-0.08514470764824655
-0.379731472143551
0.3343343367161445
0.21503593820300446
0.718867401296475
0.17847967207191956
0.37833822938552913
0.21921970668524818
-0.5970691787511985
0.2632825550966799
0.5532789914450668
-0.6850833614670383
-0.20775161935228387
-0.2713246527692697
0.9428903973265786
0.0441455669676697
0.8666039819546397
-0.48583416977508914
0.995534948459909
0.24398643138961076
0.18472882083036274
0.1238223766911903
0.8762943654663046
-0.3509814610984156
0.6893141835188419
0.3166587701833499
-0.022143892683510042
-0.7253770420661291
-0.774432744682266
0.3698474926493047
-0.0003103482535603531
-0.5107385762954156
0.08174446088685891
-0.8306748872504279
-0.529662735731429
0.7486449536291109
0.43482272915685405
0.4323945902847896
0.0690670279373397
-0.6487182872523828
0.6132635155191483
0.13294272590710143
-0.3487485034779715
-0.1989871512527418
-0.5827736543076317
0.5502477160016742
0.04836777561006832
-0.8449961023326711
-0.9707214245138627
-0.5717571556696746
0.6653009452036812
-0.902175217454603
0.08420960760181255
0.30554385891200864
0.291739641788731
0.9807208401727252
0.21813311773345878
-0.6761508471671667
-0.8912693943942922
1.039225618057322
-0.8180760663078944
0.6779840626541114
0.21684652591338485
-0.9346468397605293
0.24284146513214042
0.10036393287506974
0.34988135367447465
0.2942243012390997
0.6042441819557482
0.4401815890527333
-0.4237318302792583
-0.4427937142529999
-0.5260351881625315
-0.3617262165892152
0.3548320047895844
0.29492137188581546
0.5857315791796027
-0.5753028285687538
0.15644169057798699
-0.208608118090495
-0.27362657451861294
0.9830390671672065
0.7760072746579192
0.6766207744178881
0.44411075255803695
0.5074966821420355
0.49784820239675565
-0.6100154239869887
-0.34052772582134994
0.413051257968539
0.23564426350866863
-0.9190159473746866
-0.931704481734636
-0.05432158417334716
0.5143437050482559
0.21526886705824375
0.7288430412842646
0.032826258440406354
0.21511167212392274
0.227841468524122
0.5997140101695041
-0.26446058365791997
-0.3149895227575976
-0.9331676463598708
-0.0816197148599519
-0.035819226829389796
0.21921220345211043
0.17489012758045147
0.8360382390772605
-0.6498585414523995
-0.49165645432138566
-0.33955502554416134
-0.9421303368885103
0.6057485748012793
0.35340937932343064
-0.9525358243837697
0.6285753636324571
-0.4581045474088406
0.7327861909077693
0.527009659941944
-0.9990457536500038
0.7741115517177846
0.4093108092388361
-0.7822619260072898
0.7483153967632531
-0.2324256114632415
-0.5171266439771637
-0.716488254459558
0.9075828635711116
-0.4902620178117302
-0.8012981198436099
0.02343697904654516
-0.6396225424472658
0.902610602916536
-0.5685694924170779
-0.19719046448493105
-0.9438028368756307
-0.5124655310135453
0.4003441676713916
0.1857380042968741
-0.756291499721726
-0.9306586618007179
-0.31671895760927893
0.1564809523887573
-0.12723738215142433
-0.1328481497054181
-0.04151114628235947
0.7324844815513868
-0.5260798052275187
0.026234075725738364
-0.7551634720564311
-0.698382460855488
-0.1898318939213326
-0.05302593833237275
-0.15853139709726097
-0.672447011540163
-0.8666833169516787
0.09773639226934817
0.5761086487414346
-0.6246395289907309
0.928815310676831
0.0436073302973929
0.7163436488917732
0.962561124359049
0.28459205800596576
-0.2552252555328291
1.0025841733853824
0.4397042140147317
-0.3670868508330357
-0.3906582180934657
-0.7685145585994774
-0.6446816229143527
0.3316152287323212
0.5504318285600759
-0.5548102208247511
0.4227941602272997
0.44601962600772244
0.8675067900313852
-0.0016969971562183254
-1.0639293675401043
-0.08966770511327025
0.6665862589956822
0.5143076703946877
0.3740037180398057
-0.6060045618199765
0.9581300943526712
-0.2458463163873479
0.248394587271518
-0.518416997873184
0.5632053150715297
0.6958040981529287
-0.3947663996093345
0.4102148362572378
0.5950339212742046
-0.8085736803477576
0.5968218045994025
-0.4506599716648803
0.12036055303629738
-0.3507262559497527
0.26346388553399724
-0.35562382122635505
-0.2365910038316158
0.014180315554377937
0.47108004119255786
-0.4349022919006984
0.8441880735553478
-0.1692040355079758
-0.4238113402764448
-0.36190007863976076
-0.5701411105545793
-0.5542388624296954
-0.6376676724870767
-0.0018117353474123314
-0.40633715744250654
0.8073104585899147
-0.2232634548496815
-0.3309954179922841
0.2330252162422712
0.3643063226477758
0.2736506618010814
0.2777718939033089
0.7077530443904535
0.01363192833944176
0.5226017071758817
-0.6587301808522306
-0.7965706409119927
-0.925865617127134
0.5389245681666477
0.6651588441081169
0.40908716423593244
-0.569201072962182
0.6647963471063306
-0.9706390247773046
0.75340649722961
-0.49614235099506915
-0.7006922469813359
-0.036172927431024536
-0.7549780299465113
-0.7104787110517233
-0.44830146250202074
0.3751272822682838
0.7932768259860603
0.797416883399295
0.876843402793035
0.12268959497050956
-0.3106738917460087
0.628428811080801
-0.4124265501972612
-0.22750657154330922
0.007214302237475602
-0.2995948279570921
0.5295631088268189
-0.6538258437148865
0.333969862851247
-0.4966949366455535
-0.40998327548931673
-0.5917152004568738
0.19059864906828652
0.4133735882239199
0.3369334982849722
-0.611584434375886
-0.4519121509611659
-0.25851770275000235
-0.14715125752566044
0.8715510133449468
-0.7032594720553859
0.9622929916114007
-0.33335559255710584
-0.807119370801411
0.8684205753657719
0.16354191827499487
-0.18710934332665627
0.5915522205888526
0.7060950140472503
-0.30145423607590693
-0.010958794682622881
0.26027991543687906
-0.6136730215140984
0.964944294737113
0.9665579340549666
-0.4783739886338126
0.47732295358600707
0.28554930990618277
-0.4133009716738047
0.6845898434395066
0.4587243527541356
-0.8144350546035701
0.4948464977830127
0.06034816591590604
0.3702376376807602
0.6214522528234445
0.0066871364612942
0.6368800965885034
0.5767467017143257
-0.06144542009598397
0.10809489712331904
-0.5349573431390723
-0.22923703403094045
-0.6893512377907303
-0.8843935947029751
-0.3581058247303853
0.26520321837997374
-0.27381690141416987
-0.013558616367763968
-0.021529949567929706
-0.2950971761178826
0.7428454603324038
0.1779057785748597
0.788045144225796
0.9450617759734042
0.713379921841479
0.42027118293618826
-0.2040326772173494
-0.18782490972119972
-0.6498129336656642
-0.48549097534588703
-0.41571416103029185
0.539553420911177
-0.639202748583157
-0.6621886147542578
-0.7515747218874643
-0.06139722734127585
0.531477228002861
0.2795261200198521
0.14421836639902808
-0.27187211152414303
0.9502061005807535
-0.026379246141316245
-0.08103532453351003
0.054648102597858954
0.9166448780293471
-0.5213623354211196
-0.9829763961548095
0.7893297046047909
0.03936393405980022
0.0760015393574243
0.8732134852534178
0.21765138301911527
0.16619147716805763
0.6406222120148929
0.5552668544383113
-0.5782241343631308
0.3425420265708793
-0.865278273079291
0.17930420890381146
-0.7042023379194269
0.32144340781027925
0.21829289273323335
-0.2941845874747101
0.5997432921274447
-0.12374499783684483
0.6844697838984442
0.6159067083950814
0.5728940812461776
-0.20691446510433137
0.789716156715934
-0.9315026792755811
0.7587316611268943
0.356805602088313
-0.9781719873299011
-0.2820972123196538
-0.2195341794651299
0.006788176209122101
0.35334055640746653
0.7307855211218596
-0.07649738696458394
0.7238800022634654
-0.9494891683018151
-0.18485650703471768
-0.03607233269778698
0.4628075497357497
0.8121994310598848
0.6236149083201249
-0.8201956396446086
-0.761134648038512
1.064251728454985
0.344082114672981
-0.030272449796295477
-0.8424757797960384
0.26841698951050913
-0.2846442809217442
0.7902425074228935
-0.810389930574164
-0.49744415255223867
-0.11237224384683532
0.8246541453321872
0.7472217646653551
-0.5324600307491885
-0.4969975495264592
0.6814308991310661
-0.2258172848016718
-0.6005857510311574
0.9445124950360214
-0.36295449910392535
-0.3712716005075811
-0.5483593866650224
-0.6534018652921655
-0.6637646208132475
0.7483193456738041
-0.07492257108713109
0.6862762066043866
-0.7851685553360991
0.982855743372799
0.01581460976345426
0.26291960458517716
0.15603081626358153
0.27950633342680725
0.6024863050752182
0.21746639320841546
-0.05215433578301863
-0.6655883619694312
0.6043858351414738
0.10939995465251177
0.476144330861255
-0.38591344659900717
0.6426141379223647
-0.46521222193731293
0.06733871776895461
0.6471094889826606
-0.5387639726209885
0.9942367077541847
0.10442615977547026
0.8876271277925907
-0.42642778408300336
-0.7788241070623223
0.18309942885547192
0.7417248030978686
-0.7910538430625939
-0.47118878182313156
-0.8461540428657174
-0.6701932120668295
-0.7568472039966719
-0.988189137223615
0.1960198840118712
0.4188484611793788
0.47519499862394526
0.5504208693656955
-0.568570178920549
-0.7349875653114734
0.45860929906358805
-0.904053534709758
-0.25517685140370655
0.6408860676868563
-0.3905921720250956
-0.6978452741402023
-0.2496236810860451
0.14439319002212597
-0.05416674959261641
0.7119725311049911
0.4528144982367797
0.5230972671045933
0.5414823894690579
-0.798724908583537
0.389678534591191
0.5337627635737947
-0.7104797906687607
-0.948061198634484
0.42938095775105994
0.0979820963929046
-0.7840200204727842
-0.06778888588292281
0.433647259911786
-0.015225538271644242
-0.8017950550121812
0.5922610160266618
-0.3304660205632145
0.5802493559647349
-0.867311206423633
-0.8391886195363657
0.28442702461708075
0.3537931869982559
0.0025022568418476806
-0.7764875277291071
-0.4445548787088877
0.959747843458161
-0.29883976854469474
-0.3767694784202936
0.03354108319687187
0.3780685451769605
-0.8447692687805526
0.03219788768144565
0.6821553100748374
0.10967797856879284
-0.010951639143361244
-0.9173084759775847
-0.07374244873533607
0.9612140274874672
-0.8029385602152668
0.7662682281029601
-0.7072705181823398
0.5559315817393135
0.7389051967740821
0.49784933063699466
-0.7059545821476956
-0.5772027671694708
0.5099463929741211
0.3278849622842272
0.09367850410419429
0.23915981062678224
0.33892687847524955
-0.5290084385000345
0.6527739070220132
-0.38931114871954214
-0.9069176603040954
0.5014494164500829
0.5503821514666947
0.6885721952038573
-1.0703335672970062
0.5853369092386858
0.08615573808208382
-0.5449217250604432
-0.7817070677739922
-0.5994709652894037
-0.5846993996782781
0.08020602680189891
0.2129230413003948
-0.5485440043347841
0.6062979315626184
-0.8378606070146454
-1.0029183154890555
0.6993757294615845
-0.7248608229974947
-0.3394703558437394
-0.1571798428013476
-0.45854470873794184
0.057167049876646135
-0.2484949198794632
0.8000908336693355
-0.3322465916281718
-0.48264871581033497
0.003016060829186021
0.22756011004490995
0.7908987269702735
-0.9236158142582571
0.32325892399138206
0.3420300990643004
0.4966929497279565
-0.06570677409028944
-0.868274228186795
-0.39006221426665805
0.738700724123483
0.48704781206460307
0.11258847196628798
0.17609264032300917
0.31986048955457475
0.6425899454460925
-0.09318408403624892
-0.5360147698518618
-0.3422209980997122
-0.4040320929955614
-0.1210142327657371
0.5878877517848503
0.8700544405116366
-0.57895457634124
-0.45884182191177925
-0.9993029727876851
0.9251809617159624
-0.5298184379203881
-0.4589452247106983
-0.10267854362546593
0.8694922232734493
-0.9738756151036818
-0.07414075845365344
-0.8014443081015781
0.09317242051464661
-0.5912685823796232
-0.8518210383574465
-0.26278362645610814
-0.019063984602001156
0.055754027208948106
0.3317800630141184
-0.3597452978455063
0.057777903505417956
-0.3581809709744061
0.408495398768828
0.07441204056009058
0.8820418393143294
0.4254187936256
0.6176296318693514
-0.15382715545650194
0.730954590040827
0.22662908802657739
0.8349782978623267
0.02199037114225701
0.7151298004815017
0.6722914966353551
0.41257252091205004
0.7556673178839199
-0.4957297852962766
-0.5357421692329543
-0.49981991188724123
0.8960638945069255
-0.6715075295451134
0.8975155953896177
0.8111695699361241
-0.8478831139906154
0.3721964090202754
0.46095193462593653
-0.7904289640926577
-0.8177966143216248
-0.402492377804244
0.7625334302492279
-0.031106518037560014
-0.10699465768766937
0.14952030992501292
-0.17524363280363123
0.5819078710060864
0.9108536363173698
-0.07571369318455756
-1.0081167596972955
0.8156524596746475
0.9229468120037544
-0.9403746740560982
-0.40502944483562475
-0.923450690641034
0.5775527955860353
-0.7718351586546393
0.22790256717778232
0.4198091730665576
0.12293331131826475
-0.06930636758905065
0.27997258852202234
-0.8098015098964183
-0.3727920153205517
0.08854326766884674
-0.15937928477196162
0.016299050274263566
0.15423441548015604
-0.4701780487580203
-0.030115835165451774
-0.6338103919836061
0.2126124168625304
-0.2376326608772129
0.0836440430520539
0.8802045031989544
-0.5855536064804248
-0.04173059242556316
0.5877848210386657
-0.939363812070633
1.055148339224619
0.5398336242395073
0.1849147414802212
0.8381028069344424
0.8187218246152309
-0.6900790564665201
0.6889618943682831
0.6417024740492566
0.3882170703438704
0.4273465378134816
0.5244814982810111
0.38213698135067736
0.9646838582265166
0.16386312630032487
0.7118341248438542
-0.38375038906157194
-0.7656461634654036
0.61668794520612
-0.37169575636325214
-0.27797388435462406
-1.1866412349295865
-0.7833854000656094
-0.13390619534753398
0.7480318834792958
-0.9061711737856776
0.518378510011753
0.38284325795581764
-0.20707652962845008
-1.1048042548952468
0.21005422922998274
0.8096333757602348
-0.8087637904024519
-0.46815011727519235
0.37015828536450546
-0.5360443523168062
-0.43421013074802395
0.8439648252630205
0.2721522095195332
0.05282370990291512
-0.42142494109939876
-0.04789645191891588
-0.0249751220344344
-0.5282298109978346
0.36219860705319407
-0.9014861164661008
0.18874405297515068
-0.4866174853161882
-0.6818517868053275
-0.7127216212138018
-0.47935768221260855
-0.358256004089541
-0.6413138507853583
-0.6984597885160312
0.058083285913771675
0.28842951372481834
-0.09301085981237837
0.31392261097277785
-0.7702623720129159
-0.556845516111043
-0.2802299079059691
0.2024733869781237
-0.8007279631290382
0.25828199765308657
-0.014150526063670277
-0.4009213872825089
-0.5509850772383728
0.7366347000125422
-0.528820353866059
1.0104954100730479
0.1890083899634012
-0.7575570231523839
0.6520242848857568
-0.816641402934522
0.9199711848850305
0.8094254037398043
1.0634090368064018
0.37098949415466975
-0.1568756579436306
0.5219024358145804
-0.3296673049096734
0.35133692830771107
-0.04895926650917858
-0.6354473760764339
0.2384448313489116
-0.38151538970963783
0.3994730715958923
0.9185905143505504
-0.5174975717500218
-0.47760950339976116
0.010327051313798994
0.709719970323777
-0.11016704427163972
-0.7427695709397105
0.3517387274688626
0.8469706033975886
0.20263978462591167
0.6608329460721822
-0.315686344611361
-0.03534571816002613
-0.7415525009875401
-0.718767342406083
0.8225898117950313
-0.8515588602734799
0.31783110985866
-0.40565637145079836
-0.46261224310494403
0.10137585095303536
0.8700013267541976
-0.13316848877116988
0.3247943015077401
-0.11099464819394429
0.6801231864396395
-0.957517167860218
0.07774425235846723
-0.07959398174923471
-0.4796318022633931
0.9081847767905352
0.2714605789796713
0.037789585746608234
-0.9605066650468701
0.41324707803811606
-0.37922813779246023
0.3638851934181936
0.4502465385107728
-0.9037567679872428
-0.3008925240518805
0.8295496005375573
-0.4754634054272032
-0.05834803250289102
-0.5760556864804446
0.39782933576783674
-0.6831972630206753
0.7292695737172495
-0.49794312011867115
-0.8312019394925363
0.5154852862736586
-0.1039785109069699
0.15177757166843958
0.4932245208540095
0.5500300134767999
0.7976361969884673
-0.15160721085203616
-0.03174245036312078
0.21977470321194267
0.8845224568718594
-0.2554173253239149
-0.8057000155986938
-0.4228943083456837
0.019315328904517922
0.7506617986068221
0.43101993878487305
-0.0807124276490806
0.16191265566267665
0.31748232348652666
0.3922694607275335
-0.17675663327603963
1.0381242237840893
-0.26264724870838363
0.4903189455203513
-0.3410037035566181
-0.671972070082894
0.556050835065362
-0.2828309166520992
-0.09153808382213685
-0.7085433165693936
0.5724397967299636
0.7586122919265674
-0.280813937817089
-0.15927357695056923
-0.9043633112143878
-0.18357201221720554
-0.7547432141129558
-0.691691614574561
-0.6345945542663779
-0.9113286176138788
-0.4057882036268998
0.6803096934425673
1.0105281792831042
0.349118267562258
-0.11382330555648541
-0.1618190584144004
0.5058206754200967
-0.5539907160452577
-0.9512061561625056
-0.36718387084870313
-0.63514120831586
-0.11063639746430845
-0.4552778935725017
0.9313304903033333
0.5448837020361645
0.3497881986589181
0.34426192116646337
-0.026393948835982693
-0.49232792051131713
-0.22925343172291268
0.45525729602752646
-0.22976222609301336
-0.6646746775468371
0.27833199549435705
-0.15751246773918529
0.1437758654730673
0.12294648215726761
-0.9382598282570339
-0.249800240012472
0.29990225157423533
1.0275684591977812
-0.3709033771882967
0.6901972042960728
-0.17802500063404725
0.4671712180201113
0.1296413070910698
0.3210235043107935
0.8300853817340096
0.8712449001871672
-0.6298668214835316
-0.22691285710455503
-0.7470323105950669
0.34809893236674955
0.12372739469334892
-0.2843321788311078
-0.31519105840261535
0.22962797767134188
0.20842275377821506
-0.24653707715094722
0.2919355216406825
-1.1254545103242846
0.2041662737103478
-0.5255756398059208
0.6419995582905101
-0.10615501144065258
0.8404376338810102
0.5025905430751577
-0.49713304812528436
0.49372806579777334
0.2850073998143091
-0.1319537968331815
-0.8867382709016345
0.430669697032849
0.4782986317404344
-0.0779590388620793
-0.6763460409046633
-0.902892837103286
0.4429951844804923
-0.6638837599614091
0.3103041155178929
0.7544421613798219
0.6962711001828729
-0.864957667429115
-0.5031101107562562
-0.1754536663730945
0.10827967404486337
0.4688406859119197
0.7253937241835503
0.5816465582531095
-0.791424540013735
0.5567192398381167
0.06992005364995955
0.5071165656212872
0.5347473381565802
-0.057516975947596735
-0.36348929335381625
0.8248214745402666
-0.3572490061801714
0.7229488966410447
-0.8963535163150218
-0.7264062435977499
-0.998136205936902
-0.09663319926790162
0.36953830719687614
-0.4569683547668562
-0.9273403268822932
-0.16317325612483619
0.5897693525579005
0.6687226457496376
0.13707589104627116
-0.045798368499634166
-0.4766316799134371
0.23425732649956807
0.6559244958880274
1.012056415841644
-0.5607899174334516
0.5268915752047535
0.9894459413049573
-0.9377765282607299
0.1505107890804618
-0.7482675096563189
0.7041624283374132
0.19423917951447275
-0.09535183849995689
-0.23003514101338496
-0.6448938733553388
0.03195745801284262
-0.6431743368445871
0.1702035958368116
0.3677288419172559
-0.17936570882911387
0.2765124726123358
0.09998855950264428
0.9717290522387242
1.0025601116111653
-0.5323574073346076
-0.6423965624599479
-0.33534565361198293
-0.9005277135851892
0.10441093013344238
-0.6921400479362508
-0.6044690251663208
-0.5093525902814048
0.3739142024967877
0.360582399314452
0.6657588914344075
0.8250575668488348
-0.9483746921061446
0.8103853121284209
-0.7173644951587508
-0.5763299652523752
0.6146713066694813
0.5218466438960147
-0.3880303433087953
-0.5137843511592834
-0.24640682548294046
-0.48492323373017243
-0.6617446374294287
-0.20878576468859505
-0.636940888015571
-0.16468617313985537
0.7750170833951179
0.2696629948703007
1.1163190252845412
0.6322667981591278
-0.38456176768077166
0.4843798454474832
0.5973949024158626
0.45339935153531064
0.4611598755380692
0.8510283453613301
0.12045425784087008
-0.009415113340983043
-0.77982792045147
-0.4893872573131083
-0.6308243276362155
-0.7682596269306128
-0.7996253718812921
0.6408535636889778
-0.729545522714759
0.39310385911054446
0.6674665675331178
-0.8958024797894668
-0.7059370217204406
0.4840095670496833
0.836820281629523
0.7371048348830428
-0.8483099800953436
0.17649887285342009
0.07001681960276612
0.1544216339788491
0.02173881511843643
-0.2736481146824333
0.1128438993165319
0.34789959620839384
0.3208756844767007
0.03259707470341085
0.544778865606873
0.012497654848721746
0.5545612139244017
-0.9078625722880239
-0.6231011220526009
0.7067970706419421
0.800634250393558
0.84553241952694
-0.7449831186761068
-0.7015736695714198
-0.2517169167817375
0.8180242433583155
-0.3054111888843681
-0.6621435823535138
-0.6050032887121488
-0.3602121578072624
-0.2272689403313432
-0.26347554326521383
-0.0887490459724297
0.17893393234848953
-0.5842437991375105
-0.5003200127636195
-0.9447006315004847
-0.9198582660529455
-0.021963695141571593
-0.2639240016984973
-0.18767896974934442
-0.34737267978550407
0.9135570498767405
0.2633473383938318
0.10824378848133888
0.6820178527717662
-0.41680501737153114
0.6824589771459729
-0.488187570248704
-0.5154450897366838
0.33771862465630237
-0.17608254974316193
-0.7908533335027814
-0.49595903265204083
-0.020479214247366005
-0.08478479933270097
0.2120786769470542
-0.4176927305866952
-0.33516464100371446
0.3909582853750893
0.46293123002277037
0.17876227822315297
-0.014181803556069867
-0.18636908150328074
0.019922523754219434
0.7879422195334205
0.05204753005590466
-0.8987275293624332
0.8905258690339054
-0.31013353883710076
-0.8961716760737299
0.21755125927602983
0.10686560575661566
-0.8477623760149452
-0.953428711103676
0.9962440770642522
-0.31489486036666053
0.43587378434717683
0.9417178469638192
-0.2459449597521195
-0.37838653752150575
0.3121062021775903
0.5088030265858743
0.5310640023416013
0.8618836817178525
-0.8931063386767502
-0.22727527609560202
0.4840665250550242
-0.38767778442147416
-0.9832632331566477
-0.4166366230199428
-0.4212925965465406
-0.8908859108281921
-0.7472248323265124
0.23691234460490812
-0.1925542653943395
0.9315620615194194
-0.27044394600468247
-0.7910286818640414
0.3444414835128957
0.7963927666150873
-0.6420112047336384
-0.6602356511916712
-0.28676038325046943
0.13436172194312257
0.2863916007591627
-0.6317044237788395
0.7515710962405395
-0.707541486407883
-0.6233442398739182
0.17765634374214076
0.8689656573573886
0.30175613938654194
-0.32169962203734603
0.8636861423172716
0.32533390528512507
0.8368904871822482
-0.46900974109255505
0.9501402516749592
0.317015113077853
0.1493883785445802
0.2920844149635719
-0.8391054467331164
0.011658131274088716
0.695432791020318
-0.7073971284082103
-0.15663389620147097
-0.4749162157828975
-0.33389897934007023
-0.6503826563415782
0.9620590874629877
0.6841585880292624
-0.6098634105794406
-0.5949820554370879
-0.552851745667588
-0.6136288475073245
-0.8056394654844974
-0.9458743657784013
0.8047729333562567
-0.8727763813355133
0.8109180629108041
-0.9299323608309229
-0.1963173495587985
0.6855539568857515
0.9123163208635279
-0.7980832269195275
-0.9070945686497041
-0.5497315905483311
0.13034916128580007
-0.35767900505921696
0.0016450393361022873
-0.3339834703265025
0.3686028898275991
0.11312836355702466
0.5335034470512643
-0.9284702832568706
-0.8247292265256617
0.8123892320291847
-0.6118943776946143
-0.3987810473800728
-0.5292389426514765
-0.7702128490360252
-0.059834247003990905
0.344465492192375
0.3021804852693123
-0.7175309288315368
0.5808430654940946
0.5358978899891305
0.476373494698819
0.1084842589976012
-0.33693596316463137
-0.007467341577478909
0.13070475697644116
-0.06077631952939971
0.4297057724082147
1.026623053328946
-0.8179552084777824
-0.001023566135560864
0.3027381701289916
-0.8807704537406627
-0.26208662925117715
-0.5517877603789247
0.5799144946737121
-0.5857038861719139
-0.3614461635875485
-0.818330400377275
0.3619872269807752
-0.5342338117222908
0.6961482709717651
0.6621108615057106
-0.667810987480083
-0.03578834201639101
0.9041059436401805
0.017277745386684803
-0.5380517773063305
-0.13689990671390187
0.4879370772832545
0.18671260170717302
-0.20995747980917306
-0.9789557828414561
-0.15809199916444433
0.1866650458049944
0.26182262269187606
-0.2810652504627624
-0.8935995001841053
0.5103654964235801
-0.024890924156486777
0.10812227391757902
0.8058691078571624
-0.5253107104100003
-0.036330857470114115
-0.15176236143630917
0.20598685496989672
0.8851393462544338
-0.7249435240500683
0.38746890149697427
-0.052026586668815676
-0.12449424471166064
-0.0070897375310637716
0.26112336900680494
0.008206525772062004
0.37987918729540443
0.4228167524337062
0.5804895164261851
-0.7538765375011497
0.7752842718022224
-0.9350815835709821
-0.023071236871478825
-0.7984442992272007
0.3578961006073676
-0.5996393659401251
0.8349371741181533
-0.37972194043442087
-0.310011260826699
0.09955691001636106
-0.5613949296594555
-0.3717720006169257
0.171457563809659
-0.08383409759900708
-0.15050380855957984
0.19083696128257555
0.7243913580828856
-0.8553023873695931
0.6552452815256182
-1.0317557179541084
0.35304806286402135
0.774806098606339
0.8012730433641412
-0.5046842123702784
-0.2581437098143521
0.7907476207449124
0.6813531202464053
-0.3436527980363825
0.7787506854156975
-0.8258280833330273
0.08570656459182453
0.6484197674040189
0.6944948688256304
-0.4750741264242502
0.13632568851563803
0.1800640347716723
-0.14896433662241898
-0.10361923157274687
0.6377239239329598
0.6905172182090589
-0.1428112524640777
-0.011081135357411627
0.7385048123278701
-0.5285433634472659
0.6898198870242513
-0.21998329038371744
-0.6163294861243809
0.08165098046273328
0.021819618473534117
-0.8035133315765297
0.6121410501026665
0.5436269413366651
-0.7900685930619562
-0.6745778282964751
-0.17851910953678216
-0.46757503876880463
0.3925824577246343
0.4071997364270325
0.8686155364913253
-0.9254526555098113
-0.703307492967915
-0.11377468144847083
-0.8232519481838472
-0.5581424615439082
-0.957004116055061
0.46327722606118116
0.9045945862030753
-0.18509929761765323
-0.7634719409194966
-0.515092494051579
0.8388899398629116
0.4296341771273409
-0.6073334621303037
0.8096801368278401
-0.5576023432805481
-0.2658520821033252
-0.313619037638843
-0.015598448561625504
0.07108660344643464
-0.9401496582994041
0.8622390316397662
0.6303540032889859
-0.6000088630729992
0.09951393527001351
0.43256200135704037
-0.09363201835525811
-0.8282506645757739
0.7401778549113313
0.6263047131501889
0.9866138508852437
0.5533885239344916
0.9105439970330017
-0.7214048156604637
-0.3725559813919786
0.8829667070125717
0.2826634411524332
0.111214635438975
0.6822381022519174
0.6973984190535144
0.982326909333449
0.28205469683476303
0.7972282433742609
-0.2955216384947725
-0.5724225977167794
-0.8721585168045497
-0.20689145070696924
0.6660823737613397
-0.6893121661793252
0.8018411866756675
0.1048158817463379
0.8533300269836012
0.2771702845806278
-0.6025816485082844
-0.8544596302207845
-0.5662334779396916
0.2675297151725032
-0.9358859757912783
-0.041601759271966646
0.9561561141011112
-0.2940542818013993
-0.9884869248674016
0.7247280275343545
0.2483688351675431
-0.9518273724994228
0.3850876676377332
0.5821803018444184
0.8417376910522587
-0.13789922059715765
-0.8241432095282435
0.09385028898906995
-0.06332410840558039
0.682757590098618
0.02950608999003089
-0.5934205691217774
-0.06716144356615965
-0.05384073082481251
0.8821264314044222
-0.05379816573304799
-0.0016208751839919598
-0.23911932485091636
0.5025952142171018
0.9309861407389839
-0.9812262636512434
0.31325926182550295
0.8494390605714598
0.0030707278031751155
0.703266784541666
0.3924762663109083
-0.45050161388393256
0.09961308211522929
-0.011342360264798212
0.268806835829836
0.12156386236617818
0.48877965715606236
-0.13958390739637577
0.2688562153258374
-0.2218579403143719
-0.9500403242736823
0.13177270460479365
-0.5630257188871871
-0.016446034451484286
-0.21699496865552537
0.9646984101729199
-0.9200635617071764
-0.7318039334081843
-0.8386611159688411
-0.1444512353261904
-0.31772091144125963
0.23911326400957586
0.8985153006008587
-0.44912532238076897
-0.268463847041831
0.2928589208000349
-0.28961162478453706
-0.8955830489109593
-0.01934083971011515
0.7378254504107561
0.031192247256933273
-0.9391384728028441
0.7889171444814819
0.14694659998096954
-0.1766570729757745
-0.12083451191738681
-0.06216492781311362
-0.13923276731749112
-0.11837785789394081
-0.3627197792657712
-0.5094001955218433
-0.6951362684196948
0.2117240691973691
-0.6063200215194791
0.7128871116259172
-0.4867499317421162
0.6780659590885141
-0.4279878304497688
-0.5167737259068947
-0.04299260383086555
-0.10513470762616048
-0.8899869956445386
-0.18730521673511205
0.34648382551002627
-0.6427322348186936
-0.9780544230308598
0.4455643895447326
0.8386121065380661
0.7255753027499247
0.5901961225883164
0.4350381630051163
-0.01867185875721019
0.14919165578367272
-0.9374801552117401
0.3094587571598133
-0.1998780022482418
0.7221202677329265
-0.4984933587787783
-0.9094245932091976
0.639239240004831
0.35820914783459484
0.25207564368136426
0.6282596487346646
0.3608647468470024
0.5602210571425654
0.21768753504515395
-0.2126756800783931
1.076561246459077
-0.18060882868039296
0.3626756010357619
0.12321475169969107
0.9705754477746844
-0.4998671833536203
0.5311007445585223
-0.6932125747142825
-0.17832267971225318
0.0692546774542277
-0.874350780515468
0.4086804120829037
-0.9157806425019267
0.11100323675390877
-0.6562802741474341
0.9464897696051987
0.26164495369608015
-0.8857451616316696
0.5335886209227836
-0.837880082921976
-0.42731197430775486
0.7354652811994046
-0.29600933510441313
-0.8569517970818573
-0.9531260646163802
-0.4151064846335181
-0.14661854685477158
0.2688712578517145
-0.7271478931652464
0.7653541829426717
0.7728348346560255
0.2801037530450092
-0.31467059678817977
-0.22557117652897732
0.4848756381326693
-0.31591002586085715
0.304192114559779
-0.8981409444785587
-0.18917548663874634
0.9105139834587131
0.3199942213237541
-0.5848205892967173
0.3863045271552705
-0.05330123137784841
-0.20007934046388826
-0.2955672489189121
-0.32285240274664306
1.0134998299654912
0.11615305030044931
-0.3300740036535171
-0.106194580712349
0.9345126177678743
0.2779041797217762
0.20896743782731958
-0.9560100251287266
-0.02750150695885383
0.9192261144371315
-0.9554620021700146
0.8275204093055886
0.597386536444066
-0.8675617587358402
0.2516701364239683
-0.8748023916714315
0.09553451277677018
0.7680481812942233
0.9940472790995107
-0.7172606155516429
-1.0095849898726972
0.4734157338279571
-0.6662645911584264
-0.5413607468138114
-0.610869753476858
0.7813827386326069
0.6170214015552927
-0.5116297199191862
0.8681630605728232
-0.5050565960347843
-0.9666448357381867
0.5414052229240709
0.11081620670662218
-0.0684343377687518
-0.5932747067799728
0.19799126226865724
-0.5991946741953244
0.7350890146780592
-0.5426144500069929
0.8150490738253409
0.6599300058808303
-0.047235910106922
-0.31153367130741155
0.11724204273531189
-0.16278558685777356
0.20632301277383364
0.3684854373621009
0.6719544612724672
-0.6112700940380562
-0.9016112840099982
-0.24162412233510072
-0.7957781747021676
0.9004224366494036
0.3171985149164357
-0.32958181280894255
-0.05198723157309798
0.32167698385697757
0.7207339781126733
-0.5758892904651519
-0.5803093332274329
0.49585407248748015
-0.6206373007827162
-0.8855411678519194
-0.6271694458418988
-0.6042806393622795
0.9684385993806117
0.052797109453753474
-0.34899352009920537
-0.6435673459392545
0.18820467648456696
0.8147953024376832
-0.29554082879885485
0.008375874144536999
0.5645950487259306
-0.04824438736889418
-0.03411922226945152
-0.38511617645859586
0.6501643838839021
-0.6004105689737989
-0.913529645399849
0.8939095316498616
0.9060317797628136
0.31770038803518535
0.3204448141847558
-0.41285892995465184
-0.5655346739598223
-0.8603145274482497
0.5115707351311304
-0.09135153620721587
0.818227266378049
-0.09377893005003515
0.8127913815337714
-0.36970681718936255
0.5736337066926834
-0.8173674878964156
-0.3231047565095864
0.7496577874602732
-0.7529961965648039
-0.28126759878860735
-0.12315987596096047
0.5630008129429437
0.6687372404938455
-0.04615745537586122
0.17078937702361321
-0.48281934829944806
-0.7496383601987129
-0.8026668512979087
-0.43199162143166703
0.1295085982251512
0.7569233397716484
0.2009714058727836
-0.46270163251335356
0.7846746934845408
0.5036201559529198
-0.9130754726922814
-0.7214186811858325
0.9912250214796405
0.35454268061772815
-0.6662455711404847
0.49292009047243657
-0.2441393004116674
0.186003908576304
-0.8800499762933939
-0.01564801368357147
0.5754038638868048
-0.5460164294959291
-0.7559749068052687
0.78940740615299
0.8197779688550455
-0.48612887187507164
-0.80220956794572
-0.46317972712541716
-0.081338836735451
-0.018862238229697643
-0.407719655655886
0.5360593631740311
-0.11409558076292606
0.4459469301265294
0.5467802085266895
0.2976079965210248
0.23394818748248133
-0.9814279783424064
0.8481030168142012
0.3336541340675191
0.10522433445861835
-0.9860918425410551
0.5490693825187708
-0.24059582118599723
0.8513578935823581
-0.009190918143793459
0.22868920408809032
-0.19770717810444682
0.4197138215094736
-0.12960306721987855
0.9952663294810908
-0.6384860195464277
-0.4688536175862082
0.33203262823036606
-0.9130544760527023
-0.6922314721453323
0.3614426253699674
-0.5534830259457548
0.7707451368375761
-0.5310456627599699
-0.7945899481347987
-0.8772613106433111
0.42364455313719007
-0.058169032802430354
0.8301241909988962
-0.45751379041928786
-0.8517380110677024
-0.8128343639824336
0.537535092292864
0.08714631127396308
-0.4345376716836105
-0.7259137914356683
0.21346617635041693
0.7592069974308321
0.618830220682136
-0.46818084362565704
0.8429736820665705
-0.05806065480768405
0.9024396556461555
0.9916559079083138
-0.675627616227662
0.8528864068941162
-0.9472241899317918
0.646814416489212
0.12479882901783988
-0.9608275206909108
0.3680763180952695
-0.25388667754357475
-0.1448047572986596
-0.3368922505099758
0.0006671669869720844
0.20635279942974155
0.9837007012422958
-0.3818796976205842
0.11127838457240502
0.6660830612234278
0.11701277497909995
0.7642123504146122
-0.05170692378164263
0.8879036955214178
0.7004443416443169
1.0149560346390782
0.07494711840013055
-0.6609222264433989
-0.39587429582925604
-0.7607968715840026
-0.45886206371122423
-0.5456855170275846
-0.3593085488827439
0.8397102175151745
